tree
version=v4
num_class=1
num_tree_per_iteration=1
label_index=0
max_feature_idx=21
objective=binary sigmoid:1
feature_names=ma_ratio_5 ma_ratio_10 ma_ratio_20 ma_ratio_60 vol_ratio rsi_14 macd macd_signal macd_hist bb_width bb_position momentum_5 momentum_10 momentum_20 volatility_5 volatility_10 volatility_20 high_low_ratio price_range atr_ratio return_1d return_5d
feature_infos=[0.38507925568573392:1.2002791346824842] [0.3586737266767524:1.4490834320763923] [0.2792169674076721:1.6557168591713467] [0.31108579182855717:2.20799391422866] [0.00065066725494369979:10.664734793899839] [0:99.545454513780996] [-4.3338411565897452:5.5422811948422606] [-3.5473019878385799:4.7251941440576131] [-2.3407555044158861:2.0134091802482579] [0.014529724699792692:2.4863663803599607] [-0.53169635551459904:1.5081239754879301] [-0.69677661169415295:0.61407249466950953] [-0.79034635224760497:1.0945812807881774] [-0.79052038448790185:1.4754797441364604] [9.2148994494233979e-05:0.30578859088451893] [0.0017847704433485011:0.22738969284963195] [0.0026029443669115561:0.16465400982258493] [0:0.99999999998239442] [0:0.22077922077922088] [0.0057641377161551247:0.43396936982174239] [-0.66353029732781332:0.10163934426229515] [-0.69677661169415295:0.61407249466950953]
tree_sizes=3442 3476 3483 3480

Tree=0
num_leaves=31
num_cat=0
split_feature=3 3 5 9 4 0 15 15 13 11 13 11 9 12 19 9 8 3 5 14 16 12 11 9 8 0 19 14 9 0
split_gain=216.555 51.345 29.3385 26.4102 26.7904 22.2053 22.7716 20.489 20.0867 19.2884 17.3941 20.6078 16.9613 16.3641 16.239 15.8899 14.8927 14.6938 14.4041 14.0169 21.6408 14.8185 17.0594 13.889 13.8527 13.6766 26.0098 23.6595 23.3629 20.6
threshold=0.88659778294821656 0.99152299513304076 26.58959535420497 0.18238835231110459 0.9155162525382351 0.9744554618905602 0.055478788118092516 0.05754998274765203 0.0073820200227318064 -0.18302554474597479 -0.38290708139162161 -0.26324083920587721 0.058243614634910394 0.15072100426560389 0.019109203932551177 0.11796859938518277 0.025814696731246992 0.86251860149206838 40.195623957157913 0.046559316678071359 0.042581542274007712 -0.057095788581955791 -0.10400654938129615 0.088489214641186462 -0.33368546179347397 1.0102928171868706 0.082239880412237495 0.015491251952439604 0.99810416808131264 0.99284066913053948
decision_type=2 2 2 2 2 2 2 2 2 2 2 2 2 2 2 2 2 2 2 2 2 2 2 2 2 2 2 2 2 2
left_child=3 2 -2 4 15 6 -3 8 19 10 -5 -12 16 17 -10 -1 18 25 -7 20 -4 22 -21 -6 -19 27 -27 29 -28 -11
right_child=1 5 7 9 23 12 -8 -9 14 13 11 -13 -14 -15 -16 -17 -18 24 -20 21 -22 -23 -24 -25 -26 26 28 -29 -30 -31
leaf_value=-0.057732168673274874 -0.08848575258686435 -0.093753536422978498 -0.10824890067775486 -0.059252796880086958 -0.052068247194248081 -0.1620611737730786 -0.12734912032027884 -0.14034663294904073 -0.069572072053957573 -0.12715818493274969 -0.17883028172129109 -0.10035085652365681 -0.11669915017634207 -0.1184736153544358 -0.099631148876310083 -0.095208330086204995 -0.13616487992733911 -0.16051841584184307 -0.085062803122395017 -0.1648160986502849 -0.070003184060536544 -0.15740630070469552 -0.068185809089406302 -0.12713778361736988 -0.084164045945929536 -0.067373111483487597 -0.13905513444763629 -0.058435184688236046 -0.032160955963045704 -0.054190559692244067
leaf_weight=39.888603687286377 261.27035415172577 227.36504101753235 1544.6861777901649 15.207530155777929 6.7312018722295752 6.4818980991840354 64.818980991840363 43.129552736878395 50.359362155199051 25.179681077599525 11.467973560094828 30.913667857646946 2397.8036891520023 20.692213162779808 416.83590853214264 97.228471487760544 20.941516935825348 6.2325943261384955 96.480560168623924 6.9805056452751186 37.894173502922058 28.919237673282623 13.213099971413611 72.796701729297638 126.64631670713425 74.292524367570877 28.420630127191544 282.7104786336422 6.2325943261384955 15.706137701869009
leaf_count=160 1048 912 6196 61 27 26 260 173 202 101 46 124 9618 83 1672 390 84 25 387 28 152 116 53 292 508 298 114 1134 25 63
internal_value=-0.105838 -0.109671 -0.104304 -0.0825964 -0.0976967 -0.114255 -0.101206 -0.106233 -0.105532 -0.0775142 -0.105126 -0.121586 -0.115767 -0.0748012 -0.0963911 -0.0843062 -0.0977279 -0.0732029 -0.0899102 -0.10815 -0.107333 -0.134456 -0.101589 -0.120784 -0.0877454 -0.0687354 -0.0840583 -0.0635766 -0.11983 -0.0991279
internal_weight=6077.53 5217.18 2403.29 860.347 216.645 2813.89 292.184 2142.02 2098.89 643.702 57.5892 42.3816 2521.71 586.113 467.195 137.117 123.904 565.421 102.962 1631.69 1582.58 49.1128 20.1936 79.5279 132.879 432.542 108.946 323.596 34.6532 40.8858
internal_count=24378 20927 9640 3451 869 11287 1172 8592 8419 2582 231 170 10115 2351 1874 550 497 2268 413 6545 6348 197 81 319 533 1735 437 1298 139 164
is_linear=0
shrinkage=1


Tree=1
num_leaves=31
num_cat=0
split_feature=3 3 5 9 4 7 8 0 1 7 19 14 0 13 7 15 1 11 8 2 9 5 9 14 19 7 6 12 4 13
split_gain=195.283 46.3683 26.5249 23.7759 24.1647 20.4908 20.2335 26.2499 20.9637 19.4608 19.2781 19.1068 18.6416 17.0663 21.6353 14.8169 23.1169 14.6037 14.1696 13.896 15.8169 14.1373 15.3725 13.6177 13.6025 13.5713 18.4186 13.4946 13.9974 13.3323
threshold=0.88659778294821656 0.99152299513304076 24.451982689803852 0.18238835231110459 0.9155162525382351 0.19255886410564085 0.17243298451204481 0.97604437629062379 0.91836420799244445 -0.16082541975655237 0.048480281825427123 0.058984186505601367 0.94615924746745572 0.013178409969305417 -0.013941077586771428 0.029250308198752281 0.96547454859578319 -0.065528612445631948 0.048975048620713307 0.99604658599319662 0.039350620376557004 61.922607964407192 0.27131567231464654 0.023936904117890966 0.03432627142207071 -0.24913647515487988 -0.37924060177393309 0.15072100426560389 0.23874593563924199 0.036144578313252913
decision_type=2 2 2 2 2 2 2 2 2 2 2 2 2 2 2 2 2 2 2 2 2 2 2 2 2 2 2 2 2 2
left_child=3 2 -2 4 9 27 7 8 -3 24 19 13 -10 -4 -15 16 17 -12 23 -9 -21 29 -23 -17 25 26 -1 28 -5 -22
right_child=1 6 11 5 -6 -7 -8 10 12 -11 15 -13 -14 14 -16 18 -18 -19 -20 20 21 22 -24 -25 -26 -27 -28 -29 -30 -31
leaf_value=0.014599077315499767 0.019520619320182744 -0.031199183309810113 -0.0016852628752257719 -0.040288441489080458 -0.014398798029387991 -0.067515511856929056 -0.020448047617796519 -0.014850120532456858 0.046623332006316159 0.063389290780685767 -0.037155013165920674 -0.032560467071463352 0.0068650494269713097 0.0034758451711744925 0.03124043436095186 -0.030445290226998486 -0.04176250148274549 0.06970148355559222 -0.026292219530073282 0.039615084757149678 -0.0062614477771476386 -0.011944633129920758 0.016564224944373394 -0.00071829729188011677 -0.0033767784638879385 -0.013610827050914685 0.083922762410074417 -0.012198230604619531 0.029683373624532518 0.0076465733232841046
leaf_weight=21.214429140090939 183.8898182362318 31.405916422605515 1772.1341733783484 7.2319171279668799 79.451224833726883 5.7208541780710211 300.47582617402077 355.79741525650024 33.901817828416824 21.959872275590897 5.232165813446044 44.804232239723206 226.18129569292068 312.01258803904057 90.521125629544258 46.840341567993164 97.667095184326172 8.221974849700926 127.565185546875 20.704516589641571 350.85080102086067 600.71337655186653 51.325055122375488 217.01030588150024 63.870558053255081 12.727942526340483 17.473271787166599 20.677358001470566 610.77110446989536 338.61140742897987
leaf_count=85 737 126 7109 29 319 23 1206 1428 136 88 21 180 907 1251 363 188 392 33 512 83 1408 2411 206 871 256 51 70 83 2447 1359
internal_value=-0.000186116 -0.00382796 0.00127185 0.0218734 0.0075461 0.0266913 -0.00818589 -0.00671916 0.00738801 0.0202499 -0.008571 -0.000240117 0.0120475 0.000425773 0.0097195 -0.0171849 -0.0332982 0.0281462 -0.0126104 -0.00605132 -0.00375314 -0.00442248 -0.00970056 -0.00599561 0.0120327 0.0311749 0.0459091 0.0275351 0.0288646 0.000569115
internal_weight=6076.96 5215.87 2403.36 861.099 216.697 644.401 2812.5 2512.03 291.489 137.246 2220.54 2219.47 260.083 2174.67 402.534 502.537 111.121 13.4541 391.416 1718 1362.21 1341.5 652.038 263.851 115.286 51.4156 38.6877 638.68 618.003 689.462
internal_count=24378 20927 9640 3451 869 2582 11287 10081 1169 550 8912 8903 1043 8723 1614 2017 446 54 1571 6895 5467 5384 2617 1059 462 206 155 2559 2476 2767
is_linear=0
shrinkage=0.05


Tree=2
num_leaves=31
num_cat=0
split_feature=3 11 9 8 4 7 16 11 11 1 19 3 1 3 13 9 17 8 17 2 8 3 6 15 16 16 8 11 9 4
split_gain=176.912 34.9361 33.4987 23.182 21.3394 20.4119 20.3366 19.6511 22.6528 20.0976 16.5591 15.8947 21.5909 15.1958 15.1484 14.614 14.8817 15.782 14.1689 13.8359 23.5173 13.6481 26.0474 15.4222 21.2905 13.5226 13.4975 14.5297 15.4873 16.6224
threshold=0.90491903785966887 0.030953983208357298 0.18238835231110459 0.17243298451204481 0.91966559484844745 0.30411747717844168 0.013116151134423966 -0.02343454743008316 -0.12939780778296486 1.0000730792279289 0.068093784362627627 1.0695650083849897 1.0494546782676524 0.94198036600396839 -0.070258617798752851 0.13836515284009662 0.32782331508241752 -0.069245860009010438 0.87745475535616968 0.96157251926831011 0.0023875021207959211 0.86251860149206838 -0.1685083793762869 0.060458176287649885 0.047175983443910059 0.035636199890294519 0.27979059326334993 -0.18302554474597479 0.7251446632731009 0.38972722384481728
decision_type=2 2 2 2 2 2 2 2 2 2 2 2 2 2 2 2 2 2 2 2 2 2 2 2 2 2 2 2 2 2
left_child=2 3 4 6 -1 21 19 8 -8 13 -3 -11 18 14 -9 25 -17 -18 -13 -2 -21 26 23 24 -23 -10 27 28 29 -4
right_child=1 10 5 -5 -6 -7 7 9 15 11 -12 12 -14 -15 -16 16 17 -19 -20 20 -22 22 -24 -25 -26 -27 -28 -29 -30 -31
leaf_value=0.014381793775929463 0.037686959223534121 -0.0093034836432396503 -0.094198306755320607 -0.029294228709875449 -0.011208747496386517 -0.072779073831820432 -0.030293845493587785 0.01882755573297798 -0.0019433523724224394 0.0029486770146830532 -0.028609239755454069 -0.021043149518395896 0.065426226559973613 -0.015147172323281236 -0.010971643874989988 0.016851236768690912 -0.0091572454972951751 0.012295807900662939 0.019049169607715095 -0.0064309042772022172 0.014041534454210705 0.0063550174445218648 0.048793882905818382 -0.044853960888336333 0.069357952980963186 -0.084710621846050146 -0.0047374803270754419 0.034202902514179463 0.057728058898311209 0.0035069290144136723
leaf_weight=223.31464457511902 35.182127624750137 1244.9901071190834 4.9779935181140891 74.188572496175766 128.24720418453217 5.4433215260505667 51.545272678136826 72.806274056434631 500.48092401027679 657.84493559598923 121.95139537751675 177.79905213415623 8.465265288949011 669.49158029258251 102.957385212183 295.21177878975868 171.9706597328186 170.94609741866589 25.154782712459564 243.02198557555676 331.8000793159008 181.96169988811016 46.650166094303131 13.189717456698416 14.476045742630957 4.9840930253267279 27.704143196344376 423.23078843951225 11.242061927914618 34.67635577917099
leaf_count=895 141 4999 20 298 515 22 207 292 2008 2640 490 714 34 2687 413 1184 690 686 101 975 1331 729 187 53 58 20 111 1694 45 139
internal_value=-0.0001772 -0.00422228 0.0178181 -0.0016345 0.00504655 0.0236985 -0.00105148 -0.0027917 0.00212988 -0.00622239 -0.0110258 -0.000884256 -0.0128107 -0.0117121 0.00137203 0.00359132 0.00862182 0.00153723 -0.016074 0.00724919 0.00538624 0.0243912 0.0150034 0.00748369 0.0109979 -0.00275947 0.0291854 0.0311676 0.00592716 -0.00875846
internal_weight=6075.91 4960.79 1115.11 3593.85 351.562 763.552 3519.66 2909.66 1195.14 1714.52 1366.94 869.264 211.419 845.255 175.764 1143.59 638.129 342.917 202.954 610.004 574.822 758.109 256.278 209.627 196.438 505.465 501.831 474.127 50.8964 39.6543
internal_count=24378 19910 4468 14421 1410 3058 14123 11676 4795 6881 5489 3489 849 3392 705 4588 2560 1376 815 2447 2306 3036 1027 840 787 2028 2009 1898 204 159
is_linear=0
shrinkage=0.05


Tree=3
num_leaves=31
num_cat=0
split_feature=3 3 5 4 19 17 6 3 6 11 7 14 6 3 2 20 5 19 7 7 14 4 19 4 16 7 15 16 18 4
split_gain=159.645 31.8841 23.91 19.822 17.9423 17.8127 17.1737 16.4476 18.4726 14.9287 16.4057 16.1078 15.0419 17.0083 17.0622 14.9681 14.0755 14.6407 13.6581 13.6895 13.3559 14.1937 13.1606 13.5733 12.7128 12.3255 12.0393 16.3556 12.8591 11.9734
threshold=0.90491903785966887 1.017105884431845 26.58959535420497 0.36207806895796613 0.022905271465057799 0.078947368400275358 0.019271891143043399 0.85343433445766714 -0.18341768070664341 -0.042807506038862901 0.19879815594123448 0.018386664828753691 -0.12833117794296942 0.9473030630217113 0.96231648458917751 0.015948125270763173 66.90519466341847 0.10568946624309951 -0.12833677171357544 -0.41790076848333585 0.015491251952439604 0.32397910731866936 0.036826666592157137 0.68759383597256452 0.013116151134423966 0.10029107933339559 0.059289522294666518 0.048199757790989832 0.06403605320733953 2.0534292073223765
decision_type=2 2 2 2 2 2 2 2 2 2 2 2 2 2 2 2 2 2 2 2 2 2 2 2 2 2 2 2 2 2
left_child=7 2 3 -2 6 -5 18 20 26 10 11 -6 13 -11 -15 -14 17 -3 19 -4 -1 -22 -13 -24 -20 -23 27 28 -9 -17
right_child=1 16 4 5 9 -7 -8 8 -10 12 -12 22 15 14 -16 29 -18 -19 24 -21 21 25 23 -25 -26 -27 -28 -29 -30 -31
leaf_value=0.0023883561384230117 0.062446542075038372 -0.0053819432450211918 -0.034718742167373341 0.048770625898524336 -0.0056126004575343209 0.0045916530861194764 0.028463646320723929 0.0078562410538746009 0.025992917071194273 -0.0055600320115244189 -0.023479042754174131 0.038241225543964918 -0.005446369154339748 0.002622240533975871 -0.030313931493472807 0.016827501821094454 -0.014485191622887939 -0.060417831535433675 0.0033907678371043839 0.019987749332123831 -0.038907848577513379 0.028367747891883177 0.024321871532648368 -0.0072030530375920936 -0.015400730503823352 -0.051065790101971757 -0.033748385314414445 0.056016280424132793 -0.029767892864843389 -0.020656716308651943
leaf_weight=66.652323722839355 20.466480806469917 1495.2822821289301 12.463528245687483 26.464931309223175 116.91335532069206 165.47656127810478 71.283838838338852 372.34642614424229 154.45876784622669 325.20896123349667 44.32535782456398 56.333444982767105 814.40612445771694 50.057537138462067 183.33724083006382 139.25703676044941 681.60518775880337 12.18240539729595 317.66184094548225 138.61598673462868 8.1902061849832517 449.42745515704155 72.796025827527046 64.306778520345688 125.58589679002762 4.9372145384550086 18.383019402623177 16.740132465958595 24.185211181640625 25.151734933257103
leaf_count=267 82 6006 50 106 469 663 286 1492 619 1305 178 226 3269 201 736 559 2740 49 1274 556 33 1799 292 258 504 20 74 67 97 101
internal_value=-0.000168706 -0.00401274 -0.000448779 0.0156707 -0.00178744 0.0106831 0.00527321 0.0169235 0.0111539 -0.00427128 0.0049755 0.00903949 -0.00640446 -0.0129512 -0.0232499 -0.00266829 -0.00852268 -0.00582671 0.00249174 0.0154747 0.0233135 0.0263287 0.0178953 0.0095354 -0.00193345 0.0275046 0.00584408 0.00760521 0.00556147 0.0110931
internal_weight=6074.5 4959.18 2770.11 212.408 2557.7 191.941 665.611 1115.32 586.114 1892.09 354.675 310.35 1537.42 558.604 233.395 978.815 2189.07 1507.46 594.327 151.08 529.207 462.555 193.436 137.103 443.248 454.365 431.655 413.272 396.532 164.409
internal_count=24378 19910 11115 851 10264 769 2670 4468 2349 7594 1423 1245 6171 2242 937 3929 8795 6055 2384 606 2119 1852 776 550 1778 1819 1730 1656 1589 660
is_linear=0
shrinkage=0.05


end of trees

feature_importances:
ma_ratio_60=13
bb_width=11
vol_ratio=9
macd_signal=9
momentum_5=9
macd_hist=8
atr_ratio=8
rsi_14=6
volatility_5=6
volatility_20=6
ma_ratio_5=5
macd=5
momentum_20=5
volatility_10=5
ma_ratio_10=4
ma_ratio_20=3
momentum_10=3
high_low_ratio=3
price_range=1
return_1d=1

parameters:
[boosting: gbdt]
[objective: binary]
[metric: auc]
[tree_learner: serial]
[device_type: cpu]
[data_sample_strategy: bagging]
[data: ]
[valid: ]
[num_iterations: 500]
[learning_rate: 0.05]
[num_leaves: 31]
[num_threads: -1]
[seed: 42]
[deterministic: 0]
[force_col_wise: 0]
[force_row_wise: 0]
[histogram_pool_size: -1]
[max_depth: -1]
[min_data_in_leaf: 20]
[min_sum_hessian_in_leaf: 0.001]
[bagging_fraction: 0.8]
[pos_bagging_fraction: 1]
[neg_bagging_fraction: 1]
[bagging_freq: 5]
[bagging_seed: 400]
[bagging_by_query: 0]
[feature_fraction: 0.8]
[feature_fraction_bynode: 1]
[feature_fraction_seed: 30056]
[extra_trees: 0]
[extra_seed: 12879]
[early_stopping_round: 0]
[early_stopping_min_delta: 0]
[first_metric_only: 0]
[max_delta_step: 0]
[lambda_l1: 0]
[lambda_l2: 0]
[linear_lambda: 0]
[min_gain_to_split: 0]
[drop_rate: 0.1]
[max_drop: 50]
[skip_drop: 0.5]
[xgboost_dart_mode: 0]
[uniform_drop: 0]
[drop_seed: 17869]
[top_rate: 0.2]
[other_rate: 0.1]
[min_data_per_group: 100]
[max_cat_threshold: 32]
[cat_l2: 10]
[cat_smooth: 10]
[max_cat_to_onehot: 4]
[top_k: 20]
[monotone_constraints: ]
[monotone_constraints_method: basic]
[monotone_penalty: 0]
[feature_contri: ]
[forcedsplits_filename: ]
[refit_decay_rate: 0.9]
[cegb_tradeoff: 1]
[cegb_penalty_split: 0]
[cegb_penalty_feature_lazy: ]
[cegb_penalty_feature_coupled: ]
[path_smooth: 0]
[interaction_constraints: ]
[verbosity: -1]
[saved_feature_importance_type: 0]
[use_quantized_grad: 0]
[num_grad_quant_bins: 4]
[quant_train_renew_leaf: 0]
[stochastic_rounding: 1]
[linear_tree: 0]
[max_bin: 255]
[max_bin_by_feature: ]
[min_data_in_bin: 3]
[bin_construct_sample_cnt: 200000]
[data_random_seed: 175]
[is_enable_sparse: 1]
[enable_bundle: 1]
[use_missing: 1]
[zero_as_missing: 0]
[feature_pre_filter: 1]
[pre_partition: 0]
[two_round: 0]
[header: 0]
[label_column: ]
[weight_column: ]
[group_column: ]
[ignore_column: ]
[categorical_feature: ]
[forcedbins_filename: ]
[precise_float_parser: 0]
[parser_config_file: ]
[objective_seed: 16083]
[num_class: 1]
[is_unbalance: 0]
[scale_pos_weight: 1]
[sigmoid: 1]
[boost_from_average: 1]
[reg_sqrt: 0]
[alpha: 0.9]
[fair_c: 1]
[poisson_max_delta_step: 0.7]
[tweedie_variance_power: 1.5]
[lambdarank_truncation_level: 30]
[lambdarank_norm: 1]
[label_gain: ]
[lambdarank_position_bias_regularization: 0]
[eval_at: ]
[multi_error_top_k: 1]
[auc_mu_weights: ]
[num_machines: 1]
[local_listen_port: 12400]
[time_out: 120]
[machine_list_filename: ]
[machines: ]
[gpu_platform_id: -1]
[gpu_device_id: -1]
[gpu_use_dp: 0]
[num_gpu: 1]

end of parameters

pandas_categorical:[]
