tree
version=v4
num_class=1
num_tree_per_iteration=1
label_index=0
max_feature_idx=74
objective=binary sigmoid:1
feature_names=return_1d return_2d return_3d return_5d return_10d return_20d return_30d return_60d momentum_short momentum_long momentum_reversal momentum_strength_5 momentum_strength_10 momentum_strength_20 relative_return_1d relative_return_5d return_1d_rank return_5d_rank return_20d_rank volume_rank volatility_20_rank market_up_ratio market_return ma_ratio_5 ma_ratio_10 ma_ratio_20 ma_ratio_60 ma_slope_5 ma_slope_10 ma_slope_20 ma_alignment volatility_5 volatility_10 volatility_20 volatility_60 vol_regime_5_20 vol_regime_20_60 volatility_skew volatility_kurt vol_asymmetry turnover_proxy amihud_ma vol_volatility price_volume_corr vol_ratio vol_ma_ratio vol_std vol_price_diverge rsi_6 rsi_14 rsi_28 rsi_diff rsi_slope macd macd_signal macd_hist macd_hist_slope bb_position bb_width bb_width_pct body wick_upper wick_lower range_pct consecutive_up consecutive_down price_pos_20 price_pos_60 dist_high_20 dist_low_20 dist_high_60 dist_low_60 atr_pct di_diff adx
feature_infos=[-0.33630136986301373:0.10465116279069764] [-0.34081632653061222:0.21649484536082464] [-0.34394041976980372:0.33333333333333326] [-0.34615384615384615:0.61407249466950953] [-0.45964912280701753:0.96750169262017605] [-0.66083916083916083:1.4754797441364604] [-0.67774086378737541:1.7347826086956526] [-0.69070735090152569:2.0313253012048191] [-1.2316047059921122:0.6152489111858428] [-1.6594841384333581:1.1016820401519263] [-0.10465116279069764:0.33630136986301373] [0:1] [0:1] [0.10000000000000001:0.84999999999999998] [-0.33950611170932288:0.11963929771908308] [-0.36031417866904741:0.56170885481533706] [0.0033333333333333335:1] [0.0033333333333333335:1] [0.0033333333333333335:1] [0.0033333333333333335:1] [0.0033333333333333335:1] [0:1] [-0.09243383163395763:0.05726453581866961] [-0.29475982532751099:0.20027913468248415] [-0.31722096956031565:0.41748228147148159] [-0.40439743946562756:0.62684789462621704] [-0.61456953642384105:1.20799391422866] [-0.34308546661248818:0.51544353842352364] [-0.25831087151841858:0.37810586964350024] [-0.23488865323435837:0.24049579901838447] [0:3] [0.00011641963969291635:0.15112079836566547] [0.0008503480756684895:0.10792677387561431] [0.0058447144000141312:0.07807014773103825] [0.0067724066597158721:0.061983142751427099] [0.0032275048287181284:2.0583825077525226] [0.31984068782594222:1.6925320637008952] [-4.2737904000233611:3.7261774547837514] [-2.2254829109380325:18.751609699289549] [0.08409605993830728:23.061264867861016] [0.008671585578421518:9.8230972648135229] [3.6955830158974507e-10:2.2916782744133065e-06] [0.13406610834830529:2.0872632383673797] [-0.86019262534110741:0.96634254452938007] [0.008671585578421518:9.8230972648135229] [0.01731817885343151:3.443294135092724] [0.13406610834830529:2.0872632383673797] [0:1] [0.70385242716922392:99.838962708283006] [5.119414598068758:98.530668302510819] [10.682385935624623:94.961795961997922] [-29.254957328490484:33.464255540168899] [-56.971125800921868:60.251873215761009] [-6.0059462855263064:5.4160946087962856] [-6.2070822262356442:4.1381895641949331] [-1.1304795637246445:2.4621200585238716] [-1.8661910861717317:1.5267811879226669] [-2.0610221319478872:2.0162479507034483] [0.018372460242188714:1.3227463508484383] [0.00069589422407794019:1] [-0.1499255952375374:0.23376623373587443] [0:0.99999999985915489] [0:0.99999999977777776] [0:0.1964856230000562] [0:5] [0:5] [0:0.99999999999619049] [0:0.99999999999665001] [0:1.9690721647454565] [0:0.61412575365534772] [0:2.3298969069762991] [0:0.67408585055108039] [0.010660980810075413:0.13657142856050283] [-72.384937196092523:73.956043944666078] [2.2103713830034635:66.441572742834268]
tree_sizes=2060 2679 3021 2200 2577 1804 2313 1784 3107 1782 2453 2554 2667 2450 2466 2449 2356 1756 2028 2220 2032 3122 2003 3204 2136 2699 2771 2792 2924 1800 2767

Tree=0
num_leaves=18
num_cat=0
split_feature=58 72 27 62 70 35 60 43 24 59 2 17 73 45 35 3 10
split_gain=34.3642 16.5287 17.6672 14.4987 13.9565 13.2199 11.5954 12.3474 12.1785 18.1809 16.2589 11.1736 10.2766 13.5156 11.8458 7.69007 6.59242
threshold=0.29213851553098197 0.019422051986750351 0.0046988413404664984 0.37152509645948367 0.30735917700373039 1.002434916210089 0.0049374009645911125 0.7108811186738011 0.0036441099983400842 0.54486411339019081 0.018793068265653749 0.80067340067340076 11.824758558266229 1.0538617922789826 1.3761893189498247 0.033837767006348336 0.0037470734215781514
decision_type=2 2 2 2 2 2 2 2 2 2 2 2 2 2 2 2 2
left_child=1 2 3 16 5 -2 11 8 9 -8 -10 12 14 -14 -3 -13 -1
right_child=4 6 -4 -5 -6 -7 7 -9 10 -11 -12 15 13 -15 -16 -17 -18
leaf_value=-0.41638171736275237 -0.41236732076410337 -0.41388152036640091 -0.41375536993054357 -0.41824728754706131 -0.41134665684198246 -0.41532546586716379 -0.41665291691805689 -0.4166782430061956 -0.41254773879171114 -0.41409278147474554 -0.41481962799804978 -0.41178870510076077 -0.41631718743382568 -0.41387737447318745 -0.41584220959984702 -0.41393606041325148 -0.41438143531552463
leaf_weight=166.02050699293613 156.91692940890789 1531.0780089348555 164.10396434366703 138.7097742408514 219.20456551015377 127.68965400755405 281.25263378024101 169.13488879799843 227.5894396007061 238.13042417168617 431.70123174786568 150.44859796762466 250.34838356077671 181.35284818708897 160.51044687628746 201.95568166673183 134.15798544883728
leaf_count=693 655 6391 685 579 915 533 1174 706 950 994 1802 628 1045 757 670 843 560
internal_value=-0.414381 -0.414576 -0.41564 -0.41637 -0.412671 -0.413732 -0.414406 -0.414924 -0.414662 -0.415459 -0.414051 -0.414127 -0.414322 -0.415268 -0.414074 -0.412986 -0.415462
internal_weight=4930.31 4426.49 602.992 438.888 503.811 284.607 3823.5 1347.81 1178.67 519.383 659.291 2475.69 2123.29 431.701 1691.59 352.404 300.178
internal_count=20580 18477 2517 1832 2103 1188 15960 5626 4920 2168 2752 10334 8863 1802 7061 1471 1253
is_linear=0
shrinkage=1


Tree=1
num_leaves=23
num_cat=0
split_feature=58 33 22 48 19 18 27 36 36 38 34 59 68 1 22 28 16 41 18 37 68 31
split_gain=33.8801 14.4497 19.6901 25.0347 19.772 12.8703 21.7777 10.6319 10.2642 10.2274 10.2038 12.5078 9.80796 8.66641 8.743 11.9531 8.44362 8.3245 10.2349 7.87976 7.07679 4.46366
threshold=0.29213851553098197 0.017913647050638245 0.0020688578768823865 69.925793060674991 0.11092468307233409 0.27045150501672249 -0.008164783245028227 1.1111703906999362 0.80818048311498891 -0.52416032388809553 0.020154642070303697 0.54954189564083133 0.22793979589372346 -0.0038736604937416037 0.0059742947895286445 -0.00286805763816611 0.15025083612040138 5.2498416414613204e-09 0.65939776809342032 0.10705255354183925 0.12721942624010604 0.038903724812212645
decision_type=2 2 2 2 2 2 2 2 2 2 2 2 2 2 2 2 2 2 2 2 2 2
left_child=1 2 4 10 -1 8 -7 9 -6 -3 11 -4 21 16 15 -15 -9 19 -19 -11 -18 -2
right_child=12 7 3 -5 5 6 -8 13 -10 17 -12 -13 -14 14 -16 -17 20 18 -20 -21 -22 -23
leaf_value=0.0024782929967006803 0.0016633704068563498 0.0019441632571290076 -0.0028761259614234224 0.00064500775932416394 -0.00029132824821480726 -0.0021164948166192067 0.00016814660454185951 -0.0012190035168770348 0.0024801929808141226 -0.00016739679002543992 -0.00025216007759462964 -0.00026262147586199704 0.0027580260225332246 -0.0032122994568239294 0.00024674132550474791 -0.00044306745459698121 0.0016211448308886094 0.00048115933005760895 -0.0013001663967356733 0.0017188708513638984 -0.0003516059813825385 -3.8969588448342861e-05
leaf_weight=135.35010746121407 131.5735936909914 225.19552716612816 469.94523738324642 225.4286924302578 121.45822256803513 331.2905615568161 481.53360293805599 125.05593812465668 121.45923222601414 151.88807295262814 148.7583984285593 119.30061857402325 232.50384187698364 139.4257999509573 160.01805731654167 183.26377981901169 219.68185979127884 402.47241578996181 246.26478403806686 287.71685427427292 130.80571311712265 139.90892386436462
leaf_count=565 549 940 1962 941 507 1383 2010 522 507 634 621 498 970 582 668 765 917 1680 1028 1201 546 584
internal_value=0 -0.000193511 -0.000600456 -0.00133541 0 -0.000325116 -0.000750394 0.000187702 0.00105205 0.000594883 -0.00195504 -0.00236601 0.00169833 -0.000359159 -0.00101663 -0.0016761 0.000285794 0.000305009 -0.000178805 0.00104304 0.00085453 0.00074768
internal_weight=4930.3 4426.31 2154.52 963.433 1191.09 1055.74 812.824 2271.79 242.917 1313.54 738.004 589.246 503.986 958.251 482.708 322.69 475.544 1088.34 648.737 439.605 350.488 271.483
internal_count=20580 18477 8994 4022 4972 4407 3393 9483 1014 5483 3081 2460 2103 4000 2015 1347 1985 4543 2708 1835 1463 1133
is_linear=0
shrinkage=0.00691662


Tree=2
num_leaves=26
num_cat=0
split_feature=34 22 1 52 48 59 26 1 26 23 4 37 60 37 56 37 34 68 67 73 23 36 2 45 63
split_gain=31.247 21.537 24.0379 32.0281 20.6131 18.4204 17.7884 16.5938 15.0888 13.4527 12.5111 10.0968 11.2285 16.8963 10.2372 10.1729 8.98707 8.80593 7.9729 7.78958 7.47398 7.30351 7.10671 6.23986 2.938
threshold=0.022901535924895172 0.001738085365951815 0.0081591046204414503 -7.547566734682742 69.585329603205935 0.54954189564083133 -0.15339899913475105 -0.018348623853211062 -0.084377463964059193 -0.0026042922655221674 -0.0052961050551412195 -0.18027945010451432 0.0083886763130580095 0.90855938144573889 0.019614555958845665 1.0324337788610285 0.020154642070303697 0.043281262347116212 0.30737342846160426 -2.8483280519346876 0.019088324482931632 0.96047468404968639 1.0000000180025095e-35 0.81506767636643362 0.034421848885775992
decision_type=2 2 2 2 2 2 2 2 2 2 2 2 2 2 2 2 2 2 2 2 2 2 2 2 2
left_child=1 2 3 7 5 16 -2 21 -5 -7 -10 19 14 17 15 -13 22 -14 -4 -8 -6 -1 -3 -9 -16
right_child=6 4 18 8 20 9 11 23 10 -11 -12 12 13 -15 24 -17 -18 -19 -20 -21 -22 -23 -24 -25 -26
leaf_value=-0.00075056917497999629 0.0028497180035235497 -0.0031760914236325473 -0.0029963150380612671 0.0035655664353204677 0.0015250986184689736 0.001397490351474512 -0.001388392140796769 -0.0029415971899893882 -0.00011172029870937616 -0.0014952873896940987 0.0020849838928640825 0.00023741319359797116 0.0021834603165688596 -0.0023032778564918868 0.0032168287652210967 0.0023030253701653786 -0.00051303021666882843 -6.439584964558598e-05 -0.0006876406049000388 0.00047699057939797361 -0.00054792157822419979 0.0013588800991385789 -0.0014855090791908588 -0.00078994514759804328 0.0014466767590789885
leaf_weight=124.09456945955753 165.89557142555714 362.47360131144524 118.80532847344875 152.1480135768652 154.29828749597073 143.50548800826073 215.41737486422062 126.94915254414082 230.21377466619015 163.14478641748428 247.75667154788971 510.37109462916851 120.03561478853226 123.35814812779427 129.87917256355286 152.60896289348602 143.48592993617058 242.48164173960686 223.97131030261517 200.78714242577553 169.84860709309578 194.54003240168095 225.53373540937901 169.84010972082615 118.85285799205303
leaf_count=518 692 1514 496 635 644 599 899 530 961 681 1034 2130 501 515 542 637 599 1012 935 838 709 812 942 709 496
internal_value=0 -0.000450995 9.00077e-05 0.000542875 -0.00108953 -0.00156698 0.000672149 -0.000566185 0.00164287 -0.000106169 0.00100523 0.000466308 0.000750863 -7.75936e-05 0.00120406 0.000730543 -0.00216408 0.000651938 -0.00152246 -0.000462956 0.000406263 0.000503476 -0.00254781 -0.00175001 0.00241888
internal_weight=4930.3 2950.61 1588.32 1245.54 1362.29 1038.14 1979.69 615.424 630.118 306.65 477.97 1813.79 1397.59 485.875 911.712 662.98 731.493 362.517 342.777 416.205 324.147 318.635 588.007 296.789 248.732
internal_count=20580 12318 6630 5199 5688 4335 8262 2569 2630 1280 1995 7570 5833 2028 3805 2767 3055 1513 1431 1737 1353 1330 2456 1239 1038
is_linear=0
shrinkage=0.00691662


Tree=3
num_leaves=19
num_cat=0
split_feature=58 72 27 62 70 60 37 10 62 6 71 56 52 58 48 60 10 72
split_gain=33.1656 16.0378 17.2496 14.2573 13.5545 11.3018 12.7477 10.2157 16.2557 11.2864 10.1578 10.1044 15.9672 9.62612 8.06744 7.67983 6.44816 6.2658
threshold=0.29213851553098197 0.019422051986750351 0.0046988413404664984 0.37152509645948367 0.30735917700373039 0.0049374009645911125 0.43104549701085004 0.038584867302432165 0.1052631578393395 -0.093653728390409349 0.13606734411918445 0.00021674543830580917 13.017708358414412 0.17750203104099524 70.527549506782449 0.011904761904348514 0.0037470734215781514 0.057400280284175813
decision_type=2 2 2 2 2 2 2 2 2 2 2 2 2 2 2 2 2 2
left_child=1 2 3 16 17 7 11 8 9 -3 -10 15 -13 14 -8 -7 -1 -2
right_child=4 5 -4 -5 -6 6 13 -9 10 -11 -12 12 -14 -15 -16 -17 -18 -19
leaf_value=-0.0019713441996930797 0.0017436305131219398 0.0032994260454376713 0.00062166315185162215 -0.0038247284486449076 0.0029835478127902874 -0.0022455454626417967 -0.0026954866074925385 -0.0016619003097139531 -0.00017975446583719327 0.00080491925908421 0.0010783383698623646 0.0020002456439263861 -0.00049144711795314736 5.2056321163553947e-05 -0.00062357772413720901 0 0 -0.00026180266498312943
leaf_weight=165.86818711459637 132.3100673854351 127.73269921541214 164.12464143335819 138.51714926958084 219.50761894881725 127.15693302452564 244.00055718421936 124.34983146190643 1512.4252741336823 328.22945742309093 383.1583015024662 226.85287204384804 257.04760758578777 160.95950664579868 167.90543039143085 163.58887720108032 134.12902742624283 152.42908512055874
leaf_count=693 552 533 685 579 915 531 1019 519 6313 1370 1599 947 1073 672 701 683 560 636
internal_value=0 -0.000191561 -0.00124016 -0.00196161 0.0016798 -2.33126e-05 -0.00053552 0.00025113 0.000357216 0.0015302 6.90368e-05 2.95022e-05 0.000655101 -0.00131786 -0.0018789 -0.000973852 -0.00106057 0.000633417
internal_weight=4930.29 4426.05 602.639 438.514 504.247 3823.41 1347.51 2475.9 2351.55 455.962 1895.58 774.646 483.9 572.865 411.906 290.746 299.997 284.739
internal_count=20580 18477 2517 1832 2103 15960 5626 10334 9815 1903 7912 3234 2020 2392 1720 1214 1253 1188
is_linear=0
shrinkage=0.00691662


Tree=4
num_leaves=22
num_cat=0
split_feature=58 33 21 17 6 27 31 21 19 36 35 38 68 2 22 22 3 40 60 19 42
split_gain=32.6997 13.9705 24.373 23.9222 15.2936 18.6039 17.2454 14.6884 10.784 10.4232 10.2999 10.0433 8.75308 8.30822 14.8427 9.7289 11.7964 8.19812 8.05489 5.86344 5.22771
threshold=0.29213851553098197 0.017913647050638245 0.56114478114478128 0.73288740245261985 -0.1128783437145051 -0.008164783245028227 0.0097923991092296481 0.61916666666666675 0.43310961968680095 1.1111703906999362 0.73030733330134112 -0.52416032388809553 0.21147185456891857 0.0094290230168921924 0.0059742947895286445 0.00034919985936889935 -0.016949152542372888 0.57707729433687271 0.0099395978865492104 0.47236313438531125 0.51154702926998141
decision_type=2 2 2 2 2 2 2 2 2 2 2 2 2 2 2 2 2 2 2 2 2
left_child=1 2 4 7 -1 8 -7 -4 -6 11 -2 -3 -12 15 -15 16 -11 -13 -19 -9 -17
right_child=10 9 3 -5 5 6 -8 19 -10 13 12 17 -14 14 -16 20 -18 18 -20 -21 -22
leaf_value=0.0016767283551373331 0.0029348946730838156 0.0019242985344817042 -0.0046547875061660792 0.00081097814237185385 -0.0005090237630864554 0.0017112431496192685 -0.00042238202739366704 -0.0024423345620836986 -0.0025052655044329815 -8.2940588675387789e-05 -8.5069405390446697e-05 -0.00091392864659411879 0.0022228855191764835 -0.0022384143674066075 0.00064096225463217789 -0.001758723858607449 0.00251074535624434 0.0010548020404046164 -0.00034092000325357041 -0.00040577763155172733 0.00012663981536036978
leaf_weight=192.41074065864086 194.83118771016598 225.32019932568073 121.80585223436356 124.55122943222523 324.64607833325863 265.40313555300236 556.74660378694534 211.3424511551857 236.55591782927513 202.91701970994473 182.16043847799301 207.73187872767448 127.42499968409538 232.54960483312607 127.43287305533886 141.32107092440128 133.96400855481625 601.01163484156132 279.74850285053253 120.40648745000362 120.00228898227215
leaf_count=803 812 940 509 520 1356 1108 2324 883 988 847 760 867 531 971 532 590 559 2508 1168 503 501
internal_value=0 -0.000190247 -0.000590507 -0.0018062 -0.000137213 -0.00039784 0.000253802 -0.00254887 -0.00137119 0.000184476 0.00166765 0.000587611 0.000831881 -0.00035699 -0.00118955 0.000126464 0.000918425 0.000300237 0.000599245 -0.00173745 -0.000852888
internal_weight=4930.28 4425.87 2153.87 578.106 1575.76 1383.35 822.15 453.555 561.202 2272 504.417 1313.81 309.585 958.187 359.982 598.204 336.881 1088.49 880.76 331.749 261.323
internal_count=20580 18477 8994 2415 6579 5776 3432 1895 2344 9483 2103 5483 1291 4000 1503 2497 1406 4543 3676 1386 1091
is_linear=0
shrinkage=0.00691662


Tree=5
num_leaves=15
num_cat=0
split_feature=58 72 27 70 35 10 66 12 35 58 19 16 18 21
split_gain=32.2419 15.7532 16.9499 13.2419 12.8601 11.6968 10.8148 11.7636 10.5925 13.4396 10.6321 8.35373 7.57513 9.32817
threshold=0.29213851553098197 0.019422051986750351 0.0046988413404664984 0.30735917700373039 1.002434916210089 0.0037470734215781514 0.031064673473479406 0.45000000000000007 0.6682972598943282 0.15272310833070016 0.34949664429530208 0.63043624161073841 0.78559403829319219 0.44388888888888894
decision_type=2 2 2 2 2 2 2 2 2 2 2 2 2 2
left_child=1 2 5 4 -2 11 -3 12 9 -9 -10 -1 13 -8
right_child=3 6 -4 -5 -6 -7 7 8 10 -11 -12 -13 -14 -15
leaf_value=-0.0039706129298181618 0.0019662180250846683 0.001681130945995632 0.00061639023450330455 0.0029433819610477125 -0.00095087842004971154 -0.00043381638939195949 0.00017473501739192525 0.00044617809520006607 0.0016088978580534995 -0.0019686554534620693 0.00021293494323817625 -0.0013355664819350728 -0.0016943627436834879 -0.00087686018691405534
leaf_weight=149.88261505961418 157.12559032440186 169.19584889709949 164.14957100152969 219.74269239604473 127.71611765027046 168.30349317193031 826.33113470673561 231.44937846064568 358.84087225794792 201.01972489058971 1045.9798045307398 120.08124208450317 226.59240055084229 763.86665837466717
leaf_count=627 655 706 685 915 533 703 3449 966 1498 839 4366 502 946 3190
internal_value=0 -0.000188979 -0.00122844 0.00165559 0.000620867 -0.00194404 -2.22268e-05 -0.000104273 0.000282177 -0.000652177 0.000577653 -0.00284304 -0.000501021 -0.000323706
internal_weight=4930.28 4425.69 602.417 504.584 284.842 438.267 3823.28 3654.08 1837.29 432.469 1404.82 269.964 1816.79 1590.2
internal_count=20580 18477 2517 2103 1188 1832 15960 15254 7669 1805 5864 1129 7585 6639
is_linear=0
shrinkage=0.00691662


Tree=6
num_leaves=20
num_cat=0
split_feature=58 72 27 62 70 35 60 37 17 66 14 19 17 56 56 60 37 10 36
split_gain=31.7886 15.5457 16.7339 14.0108 13.044 12.6811 11.0417 12.5219 10.8279 10.3409 11.2044 10.0976 10.2466 9.93685 10.1486 7.58438 6.89637 6.24141 5.85117
threshold=0.29213851553098197 0.019422051986750351 0.0046988413404664984 0.37152509645948367 0.30735917700373039 1.002434916210089 0.0049374009645911125 0.43104549701085004 0.80067340067340076 0.031064673473479406 -0.0068788808969819934 0.56020134228187934 0.59030201342281885 0.00021674543830580917 0.0094928003958560884 0.011904761904348514 1.0478511184402217 0.0037470734215781514 1.0788083576449703
decision_type=2 2 2 2 2 2 2 2 2 2 2 2 2 2 2 2 2 2 2
left_child=1 2 3 17 5 -2 8 13 9 -3 -11 12 -9 15 -15 -8 -13 -1 -10
right_child=4 6 -4 -5 -6 -7 7 11 18 10 -12 16 -14 14 -16 -17 -18 -19 -20
leaf_value=-0.0019351875183704452 0.0019518891168582356 0.0017029311158508257 0.00061206245241513945 -0.0037802157377398596 0.0029213650299491621 -0.00094450922137639828 -0.0022279153748438205 -0.0036757014327717455 0.0021628208613985998 -0.00060660657382152078 0.00043861316544468445 0.00033284239362318035 -0.0007599635899563533 0.0023867931346204163 4.2751486598673557e-05 0 -0.0017221922404216732 0 0.00027394315626333817
leaf_weight=165.67594687640667 157.18759271502495 168.29415446519852 164.17015838623047 138.30531273782253 219.87061242759228 127.69134463369846 127.08493180572987 133.99886520206928 199.00918993353844 978.82719101011753 976.27663789689541 193.49354293942451 121.14117804169655 120.75683930516243 363.18901976943016 163.56911623477936 123.98595678806305 134.1126142591238 153.62349569797516
leaf_count=693 655 702 685 579 915 533 531 560 830 4086 4075 808 506 504 1516 683 518 560 641
internal_value=0 -0.000187667 -0.00122041 -0.00193174 0.00164363 0.00061624 -2.20154e-05 -0.000528414 0.00024919 5.73344e-05 -7.91556e-05 -0.00130405 -0.00233772 3.1439e-05 0.000651804 -0.000963623 -0.000437003 -0.00103821 0.00137212
internal_weight=4930.26 4425.51 602.264 438.094 504.75 284.879 3823.25 1347.22 2476.03 2123.4 1955.1 572.62 255.14 774.6 483.946 290.654 317.479 299.789 352.633
internal_count=20580 18477 2517 1832 2103 1188 15960 5626 10334 8863 8161 2392 1066 3234 2020 1214 1326 1253 1471
is_linear=0
shrinkage=0.00691662


Tree=7
num_leaves=15
num_cat=0
split_feature=58 72 62 70 66 12 73 40 15 58 18 21 54 72
split_gain=31.3406 15.3351 15.4102 12.8492 10.509 11.5515 10.1237 8.9835 8.17807 7.69085 7.4777 9.14788 7.40134 6.16545
threshold=0.29213851553098197 0.019422051986750351 0.37152509645948367 0.30735917700373039 0.031064673473479406 0.45000000000000007 16.52892560071033 0.57373125807585945 0.0015537354074818702 0.066376601774571595 0.78559403829319219 0.44388888888888894 -0.0045260864853204517 0.057400280284175813
decision_type=2 2 2 2 2 2 2 2 2 2 2 2 2 2
left_child=1 2 8 13 -3 10 7 -7 9 -1 11 -6 -8 -2
right_child=3 4 -4 -5 5 6 12 -9 -10 -11 -12 -13 -14 -15
leaf_value=0 0.001713138428742974 0.0016566499755730753 -0.0028319178025075966 0.0028995372132323408 0.00017368587987556745 -0.00084687164195208363 -0.0016252642723546737 0.00086053125137229482 0.00081904132968272671 -0.0023080497342226054 -0.0016818792448589734 -0.00086770307217764369 3.6778776806724481e-05 -0.00027636035132913784
leaf_weight=122.26726198196411 132.42177703976631 169.31189413368702 192.83824355900288 219.99674881994724 826.35607595741749 163.6071600317955 181.37590825557709 1098.5150217413902 150.38764058053493 136.6133995950222 226.50363381206989 763.65195508301258 393.89874142408371 152.49379001557827
leaf_count=511 552 706 807 915 3449 683 757 4585 628 571 946 3190 1644 636
internal_value=0 -0.000186329 -0.00121221 0.00163176 -2.18003e-05 -0.000102748 0.000280141 0.000630381 -0.000420167 -0.00118202 -0.000495976 -0.000319769 -0.000469325 0.000611646
internal_weight=4930.24 4425.33 602.107 504.912 3823.22 3653.91 1837.4 1262.12 409.268 258.881 1816.51 1590.01 575.275 284.916
internal_count=20580 18477 2517 2103 15960 15254 7669 5268 1710 1082 7585 6639 2401 1188
is_linear=0
shrinkage=0.00691662


Tree=8
num_leaves=27
num_cat=0
split_feature=58 58 15 21 34 60 37 63 35 62 67 26 62 19 36 68 74 62 74 58 54 22 1 34 63 15
split_gain=30.9003 13.0038 29.4127 16.3649 16.1551 12.1694 10.7507 10.0918 9.90782 9.59035 9.20435 11.3652 8.95102 13.9591 15.5472 8.3567 8.27521 15.1165 11.3388 8.07834 7.83257 7.2992 6.14947 4.29849 3.98344 3.26372
threshold=0.29213851553098197 0.098222917670503798 0.0029839491817553721 0.46823266219239379 0.013644198195420723 0.0047770700636371151 0.58385413605852965 0.019498607241932503 0.73030733330134112 0.24999999981770929 0.26943373525906994 -0.0010038415392241704 0.22961896319118433 0.75712121212121219 0.79890336007198404 0.21147185456891857 11.37749747893575 0.18181818169421451 8.1022703182925966 0.18358527800015406 -0.30034618549690162 0.0075365603215181778 0.0069991304667311747 0.019069944703873416 0.025741299998305232 0.015131773204562843
decision_type=2 2 2 2 2 2 2 2 2 2 2 2 2 2 2 2 2 2 2 2 2 2 2 2 2 2
left_child=1 2 3 7 -5 12 10 9 -2 -1 22 -12 13 14 -3 -10 18 -18 -4 25 -14 -22 -7 -6 -9 -8
right_child=8 5 16 4 23 6 19 24 15 -11 11 -13 20 -15 -16 -17 17 -19 -20 -21 21 -23 -24 -25 -26 -27
leaf_value=0.0014947257228564621 0.0028614001059719851 -0.0005285754070741438 -0.00012853996669587292 -0.0043867521728021266 -0.0022052532127370939 1.1858459004308179e-05 -0.0029660790532944491 -0.0025361188248101455 -9.5472129938564313e-05 -0.0010816637967320658 0.0023286709805804017 -9.9496489098742027e-05 -0.0016305914687232213 -0.00045019497533943737 0.0021008533872602822 0.0021578941247278579 0.0015424259488243373 -0.0016106659965314421 0.0024347947550041505 0 -3.5787140048482395e-05 0.0017373995435555466 -0.0019819180184119842 -0.00039071864552778121 -0.0006205072454262819 -0.001156791346432449
leaf_weight=149.44186195731163 195.21071563661098 130.87905293703079 141.07451389729977 143.33616258203983 165.95129938423634 136.95354396104813 131.06562229990959 121.92629580199718 182.21483740210533 124.41031208634377 134.8502562046051 265.19116316735744 124.60873331129551 230.80037224292755 475.74867165088654 127.64812338352203 119.07150299847126 180.5788499712944 175.56608089804649 125.44704678654671 712.4726468026638 128.86466927826405 137.45317998528481 127.10870280861855 123.86138898134232 118.48743648827076
leaf_count=624 812 546 589 600 694 572 548 509 760 520 563 1107 520 963 1985 531 497 754 733 524 2974 538 574 531 517 495
internal_value=0 -0.000185038 -0.00069079 -0.00145287 -0.0024479 8.9976e-05 -0.000497254 -0.000594909 0.00161998 0.000284918 9.07207e-06 0.000693752 0.000437757 0.000961026 0.00151573 0.000799765 0.000474034 -0.000321149 0.00126008 -0.00143562 -4.92534e-06 0.00022376 -0.000949118 -0.00145708 -0.00161787 -0.00215424
internal_weight=4930.22 4425.15 1572.33 956.036 436.396 2852.82 1049.45 519.64 505.074 273.852 674.448 400.041 1803.37 837.428 606.628 309.863 616.291 299.65 316.641 375 965.946 841.337 274.407 293.06 245.788 249.553
internal_count=20580 18477 6568 3995 1825 11909 4383 2170 2103 1144 2816 1670 7526 3494 2531 1291 2573 1251 1322 1567 4032 3512 1146 1225 1026 1043
is_linear=0
shrinkage=0.00691662


Tree=9
num_leaves=15
num_cat=0
split_feature=58 72 27 62 69 12 73 6 27 27 50 33 21 18
split_gain=30.4718 14.9984 16.4251 13.6389 9.18629 10.9255 10.1639 8.91117 8.83105 8.78296 8.63297 6.87331 5.85557 4.40341
threshold=0.29213851553098197 0.019422051986750351 0.0046988413404664984 0.37152509645948367 0.0038253111951628846 0.45000000000000007 16.52892560071033 0.010890705653823553 0.01462290680646028 0.00084175143816922493 33.067545978010656 0.018671254911137303 0.45833333333333343 0.98158249158249167
decision_type=2 2 2 2 2 2 2 2 2 2 2 2 2 2
left_child=1 2 3 12 -3 10 9 -2 -8 -7 -6 -12 -1 -9
right_child=7 4 -4 -5 5 6 8 13 -10 -11 11 -13 -14 -15
leaf_value=-0.00013314471174805716 0.0026466762558862394 0.0017419293088180999 0.00061647975824365684 -0.0037301905050572287 0.00077170475559727985 -2.5385547184767408e-05 -0.0019116224326824725 0 1.6367566698279351e-05 0.0011232562993352476 -0.0011379029517926882 -0.00021508256364896364 -0.0021660743138482009 0.0016898918162643894
leaf_weight=174.25767776370049 226.1335239559412 135.28695714473724 164.14853237569332 138.06341318786144 227.59072434902191 529.12660104036331 149.43503850698471 154.33511148393154 425.79602371156216 736.2641139626503 747.57023338973522 872.07259818911552 125.37774275243282 124.76443469524384
leaf_count=728 940 564 685 579 950 2209 624 643 1777 3072 3123 3641 525 520
internal_value=0 -0.00018391 -0.00119871 -0.00190412 -2.11936e-05 -8.9029e-05 0.000284431 0.0016083 -0.000466832 0.000634557 -0.000466997 -0.000647925 -0.00102201 0.000725116
internal_weight=4930.22 4424.99 601.847 437.699 3823.14 3687.86 1840.62 505.233 575.231 1265.39 1847.23 1619.64 299.635 279.1
internal_count=20580 18477 2517 1832 15960 15396 7682 2103 2401 5281 7714 6764 1253 1163
is_linear=0
shrinkage=0.00691662


Tree=10
num_leaves=21
num_cat=0
split_feature=58 72 27 70 35 10 60 37 17 19 15 56 56 18 22 14 38 14 60 36
split_gain=30.0459 14.8 16.2158 12.4545 12.3964 11.2658 10.7629 12.2052 10.6341 9.90901 11.4131 9.74778 10.0423 9.27828 14.7195 11.1656 8.61806 7.74748 7.48743 5.7567
threshold=0.29213851553098197 0.019422051986750351 0.0046988413404664984 0.30735917700373039 1.002434916210089 0.0037470734215781514 0.0049374009645911125 0.43104549701085004 0.80067340067340076 0.56020134228187934 0.0012195143639813311 0.00021674543830580917 0.0094928003958560884 0.36348484848484858 0.0017512869548957635 -0.015683008298520856 1.2136967248950257 0.0014676036528609708 0.011904761904348514 1.0788083576449703
decision_type=2 2 2 2 2 2 2 2 2 2 2 2 2 2 2 2 2 2 2 2
left_child=1 2 5 4 -2 17 8 11 13 10 -9 18 -13 14 -3 -15 -11 -1 -8 -10
right_child=3 6 -4 -5 -6 -7 7 9 19 16 -12 12 -14 15 -16 -17 -18 -19 -20 -21
leaf_value=-0.0038966031936262754 0.0019121213229433868 0.0012545022151652344 0.0006121513463563271 0.0028437273391105234 -0.00095123956144488103 -0.00040883886140733204 -0.0022109710338483472 -0.0037666308226025277 0.0021432768481696968 0.00069554173253904476 -0.00070837203224718471 0.0023711238462329654 3.9757921963794513e-05 -0.0015428136679269159 -0.00061370104374449742 1.8518754803012408e-05 -0.0015548809551357596 -0.0013537712141385284 0 0.00026940246772019679
leaf_weight=145.88560491800308 157.3580129891634 579.21042604744434 164.16912390291691 220.31586821377277 127.71729438006878 168.17324462532997 127.01521795988083 129.7644105553627 199.11591863632202 154.20990730822086 125.1598858833313 120.80869874358177 363.22044076025486 278.09287604689598 300.27936129271984 965.86233039200306 163.18197309970856 123.46654260158539 163.55423665046692 153.64367106556892
leaf_count=612 655 2416 685 915 533 703 531 543 830 644 523 504 1516 1161 1254 4032 682 517 683 641
internal_value=0 -0.000182667 -0.00119088 0.00159672 0.000591892 -0.00189209 -2.10277e-05 -0.000521114 0.000246662 -0.00128718 -0.0023117 3.13597e-05 0.00064578 5.64606e-05 0.000604346 -0.000322273 -0.000427972 -0.00277564 -0.000954274 0.00135927
internal_weight=4930.21 4424.81 601.695 505.391 285.075 437.525 3823.12 1346.91 2476.2 572.316 254.924 774.599 484.029 2123.44 879.49 1243.96 317.392 269.352 290.569 352.76
internal_count=20580 18477 2517 2103 1188 1832 15960 5626 10334 2392 1066 3234 2020 8863 3670 5193 1326 1129 1214 1471
is_linear=0
shrinkage=0.00691662


Tree=11
num_leaves=22
num_cat=0
split_feature=34 21 21 1 36 21 55 6 74 21 41 28 25 59 1 63 37 21 43 2 61
split_gain=28.8342 20.9998 30.3868 17.8204 18.9353 15.7633 15.3127 14.6815 13.7951 13.4672 12.9795 11.7513 11.3568 13.31 9.56052 11.0498 9.32855 8.53865 7.97941 6.24428 3.06179
threshold=0.022901535924895172 0.56114478114478128 0.61916666666666675 -0.0038736604937416037 1.1368671031027495 0.11055555555555556 0.015904404536019896 -0.11564178891004488 29.157382070808033 0.20777777777777781 1.5086101802163917e-08 -0.060342774290309535 0.0073120512071098718 0.54486411339019081 0.035373566705090072 0.055114416217660993 0.10705255354183925 0.39833333333333337 0.42682561235967942 0.016702219432580993 0.22222222197531058
decision_type=2 2 2 2 2 2 2 2 2 2 2 2 2 2 2 2 2 2 2 2 2
left_child=1 3 -3 5 6 -1 10 -7 11 -9 -5 -2 13 20 15 16 -13 -6 -16 -8 -4
right_child=8 2 12 4 17 7 19 9 -10 -11 -12 14 -14 -15 18 -17 -18 -19 -20 -21 -22
leaf_value=-0.0017558334520366454 0.0023901034384989184 -0.0037160410374674851 -0.0029925830078027103 -0.0021379271857930315 -0.0035005196648802152 0.0027453645424489431 0.0021949653745681592 0.0018483395480517134 0.0024329086387384399 -8.2017687969322797e-05 0.00016202272283322638 -0.00045730175474717878 0.00063587456728701698 0.00051013499831591071 0.002811612526184783 -0.0014811958056664164 0.00079229381188534662 -0.00097447145758253098 0.00034757451884670433 0 -0.0012433479320455452
leaf_weight=126.81407050788403 138.77351957559586 202.22843766212463 135.93857233226299 217.95898486673832 140.31901584565639 159.24387338757515 136.58299554884434 233.91387091577053 189.06352207064629 623.24133566021919 236.43922360241413 461.93702027201653 218.88382253050804 119.70693147182465 119.41631028056145 194.41519258916378 720.15678000450134 146.73302042484283 157.41476620733738 130.34425120055676 120.65092112123966
leaf_count=529 577 846 569 911 586 664 570 976 787 2603 988 1927 914 500 498 811 3005 613 657 544 505
internal_value=0 -0.000433652 -0.00139282 -7.29052e-05 -0.000747349 0.000512577 -0.000132962 0.000806954 0.000645134 0.000432865 -0.000918438 0.000449883 -0.000582893 -0.0013205 0.000279832 3.5684e-05 0.000294824 -0.00225074 0.00145259 0.00116289 -0.00221608
internal_weight=4930.18 2949 797.409 2151.59 1008.38 1143.21 721.325 1016.4 1981.18 857.155 454.398 1792.11 595.18 376.296 1653.34 1376.51 1182.09 287.052 276.831 266.927 256.589
internal_count=20580 12318 3334 8984 4212 4772 3013 4243 8262 3579 1899 7475 2488 1574 6898 5743 4932 1199 1155 1114 1074
is_linear=0
shrinkage=0.00691662


Tree=12
num_leaves=23
num_cat=0
split_feature=58 33 15 22 22 70 22 51 36 38 27 59 13 33 1 20 16 40 63 66 32 20
split_gain=29.29 13.2844 19.4257 16.9702 18.7928 12.2115 10.1804 12.624 10.0721 9.81303 9.74601 9.38274 12.706 8.6794 8.23261 8.82438 8.48543 8.0148 8.84674 6.13815 4.57489 4.36975
threshold=0.29213851553098197 0.017913647050638245 0.001902618206172417 0.0017512869548957635 0.00044636656495498472 0.30735917700373039 -0.0093151822826934849 -2.1733380646149558 1.1111703906999362 -0.52416032388809553 -0.0067809308355882272 0.5319606258558377 0.37500000000000006 0.015101792261969912 -0.003634162447721689 0.840875420875421 0.15025083612040138 0.57707729433687271 0.049859522850166836 0.4049647887151408 0.045547495874165449 0.71953177257525092
decision_type=2 2 2 2 2 2 2 2 2 2 2 2 2 2 2 2 2 2 2 2 2 2
left_child=1 2 3 4 10 20 -4 -8 9 -3 -1 12 -5 -9 16 21 -10 -11 -19 -18 -2 -16
right_child=5 8 6 11 -6 -7 7 13 14 17 -12 -13 -14 -15 15 -17 19 18 -20 -21 -22 -23
leaf_value=-0.0016096327333150954 0.0014039115612540522 0.0019020493814665416 0.001699041235980011 -0.0037954632201667921 0.0018938473255370478 0.0028101649578282373 -0.0021593419903146015 0.00097753762212852893 -0.0012326615985215744 -0.00090365239655864802 0.00027514152234895935 -0.00013792271204488376 -0.0014322900956488139 -0.00084843869856102768 -0.00092249237670349133 0.00056684839098465015 0 0.00095559949900979292 -0.00072102060023996098 0.0018065877402495436 -0.00029823415709926858 -0.0026584591529744276
leaf_weight=352.2741958796978 153.47368337213993 225.45828741788864 180.96758340299129 188.81047038733959 141.46447660028934 220.50552512705326 121.60865873098373 340.04331624507904 125.27160392701626 207.66520099341869 194.80797050893307 126.28769187629223 315.34638880193233 190.92295594513416 237.89895607531071 119.71130046248436 186.89313457906246 696.7264741808176 184.19784319400787 166.55717933177948 131.69066189229488 121.5681839287281
leaf_count=1471 639 940 755 791 591 915 508 1420 523 867 813 528 1320 797 994 500 780 2907 769 695 549 508
internal_value=0 -0.000180385 -0.000570934 -0.00109466 -0.000324477 0.00157605 0.000244955 -0.000142631 0.000184909 0.000581126 -0.00091904 -0.00191775 -0.00234155 0.00030039 -0.00034733 -0.000992848 0.000276528 0.000296882 0.000592525 0.000842992 0.000580715 -0.00154244
internal_weight=4930.15 4424.48 2152.53 1318.99 688.547 505.67 833.543 652.575 2271.95 1314.05 547.082 630.445 504.157 530.966 957.9 479.178 478.722 1088.59 880.924 353.45 285.164 359.467
internal_count=20580 18477 8994 5514 2875 2103 3480 2725 9483 5483 2284 2639 2111 2217 4000 2002 1998 4543 3676 1475 1188 1502
is_linear=0
shrinkage=0.00691662


Tree=13
num_leaves=21
num_cat=0
split_feature=58 72 27 62 70 35 60 37 17 73 21 45 19 15 56 56 3 60 37 21
split_gain=28.8808 14.4613 15.8743 13.3752 12.0301 12.1769 10.5688 12.0177 10.4226 10.1108 14.8305 13.2166 9.75155 11.2329 9.58306 9.92986 7.53161 7.37896 6.67924 5.61952
threshold=0.29213851553098197 0.019422051986750351 0.0046988413404664984 0.37152509645948367 0.30735917700373039 1.002434916210089 0.0049374009645911125 0.43104549701085004 0.80067340067340076 11.824758558266229 0.11055555555555556 1.0538617922789826 0.56020134228187934 0.0012195143639813311 0.00021674543830580917 0.0094928003958560884 0.033837767006348336 0.011904761904348514 1.0478511184402217 0.45833333333333343
decision_type=2 2 2 2 2 2 2 2 2 2 2 2 2 2 2 2 2 2 2 2
left_child=1 2 3 19 5 -2 8 14 9 10 -3 -11 13 -9 17 -16 -10 -8 -14 -1
right_child=4 6 -4 -5 -6 -7 7 12 16 11 -12 -13 18 -15 15 -17 -18 -19 -20 -21
leaf_value=-0.00012474610852520232 0.0018846018014541288 -0.0017711492210541646 0.00060706646722140183 -0.0036804302983574912 0.0027892849361629908 -0.00095302830750102895 -0.0021924283949692753 -0.0037368416017979442 0.0025302179288554192 -0.0019188491184310976 0.00050919657256680252 0.00049329076645384523 0.00033399820554973501 -0.00070094828848572062 0.0023574862008800845 3.9346692642263226e-05 0.00040788777076874435 0 -0.0016890726140262951 -0.0021183983236114068
leaf_weight=174.2128349840641 157.4750394821167 147.65750247240067 164.19257225096226 137.81744053959846 220.62276902794838 127.72403103113174 126.93828302621841 129.62990236282349 150.70429114997387 250.21290525794029 1544.0942131429911 181.40842540562153 193.48591682314873 125.13087382912636 120.85346592962742 363.22363239526749 202.17363592982292 163.53995996713638 123.85505576431751 125.17858101427555
leaf_count=728 655 616 685 579 915 533 531 543 628 1045 6445 757 808 523 504 1516 843 683 518 525
internal_value=0 -0.00017919 -0.00117605 -0.0018704 0.00156471 0.000576378 -1.94053e-05 -0.000515066 0.00024582 5.74271e-05 0.000303317 -0.000880526 -0.00127546 -0.00229227 3.30257e-05 0.000642212 0.00134715 -0.000944304 -0.00042283 -0.000996508
internal_weight=4930.13 4424.31 601.401 437.209 505.822 285.199 3822.91 1346.66 2476.25 2123.37 1691.75 431.621 572.102 254.761 774.555 484.077 352.878 290.478 317.341 299.391
internal_count=20580 18477 2517 1832 2103 1188 15960 5626 10334 8863 7061 1802 2392 1066 3234 2020 1471 1214 1326 1253
is_linear=0
shrinkage=0.00691662


Tree=14
num_leaves=21
num_cat=0
split_feature=34 26 62 72 70 60 3 39 19 19 2 20 62 29 38 60 68 45 19 68
split_gain=27.9225 15.9983 13.6549 18.3788 12.502 12.2357 14.2893 11.5569 11.405 11.4855 10.3078 10.0329 9.83374 9.80523 8.69019 21.9091 10.2217 6.54719 6.47024 3.19867
threshold=0.022901535924895172 -0.15339899913475105 0.37499999964843478 0.022047345615820908 0.29387323638904933 0.026954177897271371 0.0064332558657794756 0.89467239247525432 0.71356902356902363 0.2319334282421531 -0.028491961327782141 0.46655480984340053 0.4999999995000034 -0.015894301807311103 0.75943508677705862 0.0087336244538624448 0.048780487803742466 0.68639039257952061 0.62520903010033457 0.085227272724730421
decision_type=2 2 2 2 2 2 2 2 2 2 2 2 2 2 2 2 2 2 2 2
left_child=2 -2 4 12 5 6 10 17 9 -5 -1 -8 -4 -9 16 -16 -15 -3 -19 -11
right_child=1 7 3 8 -6 -7 11 13 -10 19 -12 -13 -14 14 15 -17 -18 18 -20 -21
leaf_value=0.00056028635184072876 0.0026959316549485849 0.00074086070514450266 -0.0037321448092711325 0.00049696219382985168 0.0016091905935048342 -0.002305402651399527 0.0013394488940926049 0.0022735448794412678 0.0014264664793312248 -0.0026188713576086741 -0.00096276271050769449 -0.00045202480609018563 -0.0011415364384684784 0.0023351432418370916 0.00081960561108372686 -0.0023183836435835305 0.00043137267389372827 -0.00012543272280325957 -0.0021093964527519292 -0.00087301164000099809
leaf_weight=270.01406638324261 166.56471529603004 143.4758889824152 160.17364074289799 153.93799966573715 180.03910513222218 134.245007827878 411.58802491426468 184.21613942086697 125.02420623600483 135.74129855632782 882.12658889591694 222.9843362569809 153.27319142222404 205.83205646276474 334.1872297078371 154.83362837135792 447.79916317760944 200.9170513600111 143.91609765589237 119.20725253224373
leaf_count=1127 692 598 671 643 751 561 1718 768 522 567 3687 931 642 858 1394 647 1867 838 600 498
internal_value=0 0.000634686 -0.000426863 -0.00116932 -0.000122066 -0.000290327 -0.000132283 0.000438912 -0.000364198 -0.00093923 -0.000596334 0.000693001 -0.00250355 0.0007767 0.000525049 -0.000153091 0.00104872 -0.000456632 -0.000986605 -0.00184815
internal_weight=4930.1 1981.74 2948.35 847.358 2101 1920.96 1786.71 1815.18 533.911 408.887 1152.14 634.572 313.447 1326.87 1142.65 489.021 653.631 488.309 344.833 254.949
internal_count=20580 8262 12318 3543 8775 8024 7463 7570 2230 1708 4814 2649 1313 5534 4766 2041 2725 2036 1438 1065
is_linear=0
shrinkage=0.00691662


Tree=15
num_leaves=21
num_cat=0
split_feature=26 71 22 22 27 68 24 55 63 67 55 74 73 45 22 21 24 38 73 55
split_gain=24.1828 16.5304 35.201 24.3208 16.9253 23.8991 10.7337 10.2457 18.8891 10.6734 10.0784 9.49054 8.41308 11.6079 7.79861 18.4072 6.37133 5.24036 6.15919 4.47501
threshold=-0.15339899913475105 0.054545454543842985 0.0020688578768823865 0.00023552334916785621 -0.008164783245028227 0.11722135381778902 -0.030470889214742888 0.026185328221132839 0.026726057906012297 0.8820050247364607 -0.033387932710862628 16.750929554297127 12.024218915188976 1.1236565832131729 0.0034659556012690122 0.55926421404682281 0.00216497472955457 1.1546343104928523 -4.3478260803403339 0.0069037029922579063
decision_type=2 2 2 2 2 2 2 2 2 2 2 2 2 2 2 2 2 2 2 2
left_child=-1 2 3 4 5 -2 17 12 11 -10 -4 -9 16 -14 -12 -16 -8 18 -3 -6
right_child=1 6 10 -5 19 -7 7 8 9 -11 14 -13 13 -15 15 -17 -18 -19 -20 -21
leaf_value=0.0021545734275397791 -0.0025753242859861037 0.002986647984984023 -4.885879481960122e-05 0.0022318623341277982 0.0018091282010169833 0.00044581238196334373 -0.00051769384873910694 0.0026759505791178542 -0.00046841342764427605 0.0017244113670936876 -0.003671599456818849 0.00034155138426968009 -0.0019710797530062304 0.00045824358132764845 0.00039620479932733928 -0.002730491348238666 0.00054145385082941604 0 0.0007185618552823103 3.8259119727170802e-06
leaf_weight=236.72185245156288 269.17037044465542 122.60978031158447 129.44291354715824 213.57808122038841 138.9856673181057 224.02591441571712 574.8431104272604 230.86055962741375 629.74981333315372 126.62422174215317 153.33460757136345 148.60924357175827 282.96931809186935 131.0587839782238 125.93961624801159 272.3552685379982 513.49442268908024 120.07166101038456 138.15950775146484 147.46715965867043
leaf_count=984 1125 511 541 892 580 934 2401 963 2627 528 642 620 1182 547 527 1141 2143 501 576 615
internal_value=0 -0.000109007 -0.000661589 0.000158952 -0.000396027 -0.00118196 0.000193909 3.28992e-05 0.000532225 -8.61345e-05 -0.00187338 0.00179185 -0.000337446 -0.00117629 -0.00228147 -0.00171537 -7.99739e-06 0.00127941 0.00182999 0.000919084
internal_weight=4930.07 4693.35 1674.3 993.227 779.649 493.196 3019.05 2638.21 1135.84 756.374 681.072 379.47 1502.37 414.028 551.629 398.295 1088.34 380.841 260.769 286.453
internal_count=20580 19596 6997 4146 3254 2059 12599 11011 4738 3155 2851 1583 6273 1729 2310 1668 4544 1588 1087 1195
is_linear=0
shrinkage=0.00691662


Tree=16
num_leaves=20
num_cat=0
split_feature=58 72 27 62 70 35 60 37 10 62 29 71 19 15 4 9 50 38 10
split_gain=28.0499 14.0208 15.5362 13.0528 11.6899 11.9982 10.3353 11.8011 10.197 15.6561 16.8632 9.82862 9.60943 11.0485 8.39835 11.5377 9.6094 8.35493 5.86651
threshold=0.29213851553098197 0.019422051986750351 0.0046988413404664984 0.37152509645948367 0.30735917700373039 1.002434916210089 0.0049374009645911125 0.43104549701085004 0.038584867302432165 0.1052631578393395 -0.0097791541681143661 0.13606734411918445 0.56020134228187934 0.0012195143639813311 0.0063777638715061266 0.002466241706386652 57.055269867026688 1.2136967248950257 0.0037470734215781514
decision_type=2 2 2 2 2 2 2 2 2 2 2 2 2 2 2 2 2 2 2
left_child=1 2 3 18 5 -2 8 14 9 10 -3 -11 13 -9 15 -8 -16 -14 -1
right_child=4 6 -4 -5 -6 -7 7 12 -10 11 -12 -13 17 -15 16 -17 -18 -19 -20
leaf_value=-0.0018542859769509663 0.0018650050777511149 0.0031363874698639676 0.00060491615648860294 -0.0036361019555586991 0.0027481106656887808 -0.00095148045939365863 0.00065483413073014814 -0.0037068577985972153 -0.001668406827640878 -0.00017868325797262474 0.00036912255178718338 0.001058612636560559 0.0006886545886274001 -0.00069402904761239957 0.0018368683017834376 -0.0016333546907831319 -0.0004033891061932232 -0.0015273685812293371 1.5164399334605049e-05
leaf_weight=165.2343457788229 157.55778151750565 182.15968176722527 164.20192562043667 137.59561498463154 220.85131865739822 127.71776679158211 181.00080734491348 129.49328660964966 124.37346297502518 1512.3500494807959 274.18731999397278 383.36953188478947 154.23965050280094 125.10365986824036 200.37256743013859 236.9076893478632 156.2575855255127 163.03879530727863 134.01911038160324
leaf_count=693 655 759 685 579 915 533 756 543 519 6313 1144 1599 644 523 836 990 652 682 560
internal_value=0 -0.000176537 -0.00115843 -0.00184596 0.00154163 0.000566647 -1.91972e-05 -0.000509447 0.000243017 0.000349016 0.00149958 6.60207e-05 -0.00126318 -0.00227299 3.35138e-05 -0.000616789 0.000825717 -0.000416555 -0.000982206
internal_weight=4930.03 4423.91 601.051 436.849 506.127 285.276 3822.85 1346.41 2476.44 2352.07 456.347 1895.72 571.875 254.597 774.539 417.908 356.63 317.278 299.253
internal_count=20580 18477 2517 1832 2103 1188 15960 5626 10334 9815 1903 7912 2392 1066 3234 1746 1488 1326 1253
is_linear=0
shrinkage=0.00691662


Tree=17
num_leaves=15
num_cat=0
split_feature=58 72 62 70 35 66 12 35 58 34 34 63 4 46
split_gain=27.6571 13.8288 14.375 11.5167 11.8317 9.92033 10.9695 10.3802 13.2204 11.8405 8.39163 8.23551 8.57018 6.29441
threshold=0.29213851553098197 0.019422051986750351 0.37152509645948367 0.30735917700373039 1.002434916210089 0.031064673473479406 0.45000000000000007 0.6682972598943282 0.15272310833070016 0.028675750280560547 0.012847195000815248 0.013625406291464625 -0.011796648357312199 0.45325968406109546
decision_type=2 2 2 2 2 2 2 2 2 2 2 2 2 2
left_child=1 2 11 4 -2 -3 10 8 -8 -9 -7 -1 -13 -12
right_child=3 5 -4 -5 -6 6 7 9 -10 -11 13 12 -14 -15
leaf_value=0.00087941880466857806 0.0018514742006916893 0.0016105835558713282 -0.0027186052616476638 0.0027277540310362359 -0.00094510728240321208 -0.0022597599421876873 0.00043881299055209343 0.00020700795663894142 -0.001956046256980236 0.0017268366908412816 0 -0.0025112883780704655 0 -0.00087257071625101849
leaf_weight=147.41921852529049 157.61479531228542 169.52654026448727 192.08166466653347 220.96371176838875 127.69298286736012 120.27020767331123 231.49410147964954 1079.3796656727791 200.93637052178383 325.82527352869511 1030.4588416367769 118.49340036511421 142.89968009293079 664.93610918521881
leaf_count=617 655 706 807 915 533 503 966 4505 839 1359 4304 496 597 2778
internal_value=0 -0.00017533 -0.00115062 0.00153055 0.000562411 -1.90675e-05 -9.78568e-05 0.000275102 -0.00064989 0.00056759 -0.00048127 -0.000385103 -0.00113996 -0.000348112
internal_weight=4929.99 4423.72 600.894 506.271 285.308 3822.83 3653.3 1837.64 432.43 1405.2 1815.67 408.812 261.393 1695.39
internal_count=20580 18477 2517 2103 1188 15960 15254 7669 1805 5864 7585 1710 1093 7082
is_linear=0
shrinkage=0.00691662


Tree=18
num_leaves=17
num_cat=0
split_feature=58 72 27 62 70 60 43 24 59 2 17 66 14 3 72 10
split_gain=27.2698 13.6426 15.2951 12.7588 11.3461 10.2071 11.7452 11.0691 17.3418 16.0649 10.1735 9.5218 11.0086 7.45249 5.98176 5.8132
threshold=0.29213851553098197 0.019422051986750351 0.0046988413404664984 0.37152509645948367 0.30735917700373039 0.0049374009645911125 0.7108811186738011 0.0036441099983400842 0.54486411339019081 0.018793068265653749 0.80067340067340076 0.031064673473479406 -0.0068788808969819934 0.033837767006348336 0.057400280284175813 0.0037470734215781514
decision_type=2 2 2 2 2 2 2 2 2 2 2 2 2 2 2 2
left_child=1 2 3 15 14 10 7 8 -7 -9 11 -3 -13 -12 -2 -1
right_child=4 5 -4 -5 -6 6 -8 9 -10 -11 13 12 -14 -15 -16 -17
leaf_value=-0.0018398706128826721 0.001643995790019348 0.0016329556409141897 0.00060628247270796032 -0.0035974261017749989 0.0027075681233013215 -0.0021809155242090176 -0.002218706194200852 0.0018254425742616294 0.00032227828121312809 -0.00043261240708870744 0.0025054915962750102 -0.00059847725556357978 0.00043768310590653036 0.00039515941980208287 -0.00031674377251011341 2.1487012280839231e-05
leaf_weight=165.15527178347111 132.66959910094738 168.61898551881313 164.19491942226887 137.40009516477585 221.07453113794327 280.42188480496407 168.70451222360134 227.63540862500668 237.88848677277565 431.62066486477852 150.80422352254391 978.57268549501896 976.28995278477669 202.24701911211014 152.6698706895113 133.99358829855919
leaf_count=693 552 702 685 579 915 1174 706 950 994 1802 628 4086 4075 843 636 560
internal_value=0 -0.000174127 -0.00114297 -0.00182565 0.00151956 -1.89157e-05 -0.000506172 -0.000250824 -0.00101189 0.0003314 0.000241633 5.54166e-05 -7.54776e-05 0.00132941 0.000558206 -0.000971254
internal_weight=4929.96 4423.55 600.744 436.549 506.414 3822.8 1346.27 1177.57 518.31 659.256 2476.53 2123.48 1954.86 353.051 285.339 299.149
internal_count=20580 18477 2517 1832 2103 15960 5626 4920 2168 2752 10334 8863 8161 1471 1188 1253
is_linear=0
shrinkage=0.00691662


Tree=19
num_leaves=19
num_cat=0
split_feature=58 72 62 70 35 60 37 10 62 29 71 19 17 38 63 60 19 66
split_gain=26.8865 13.4573 14.0456 11.1783 11.6614 10.0691 11.5764 10.1069 15.3718 16.5368 9.66513 9.45154 9.62066 8.21261 8.13747 8.05151 8.54033 6.36995
threshold=0.29213851553098197 0.019422051986750351 0.37152509645948367 0.30735917700373039 1.002434916210089 0.0049374009645911125 0.43104549701085004 0.038584867302432165 0.1052631578393395 -0.011131616562229494 0.13606734411918445 0.56020134228187934 0.59030201342281885 1.2136967248950257 0.013625406291464625 0.0083886763130580095 0.61036912751677863 0.33779309108175221
decision_type=2 2 2 2 2 2 2 2 2 2 2 2 2 2 2 2 2 2
left_child=1 2 14 4 -2 7 15 8 9 -3 -10 12 -8 -13 -1 -7 -17 -16
right_child=3 5 -4 -5 -6 6 11 -9 10 -11 -12 13 -14 -15 17 16 -18 -19
leaf_value=0.00087838684085893 0.0018335739872510975 0.0032029525928632071 -0.0026863556216018235 0.0026875512059894662 -0.00094257413146151697 -0.0013286289464304695 -0.003552005007324895 -0.0016631326507819406 -0.00017760002545600721 0.00042654709062511488 0.0010492326204462417 0.00068561249730253113 -0.00071968987858737291 -0.0015116446946326293 -0.0022086893221114077 0.0011647044217572048 -0.00045307863232164729 0
leaf_weight=147.42272572219372 157.68965408205986 169.82892586290836 191.8622787296772 221.18380066752434 127.68292891979218 160.10976500809193 133.4242692142725 124.35250428318977 1512.2970389276743 286.69619958102703 383.47055931389332 154.25282202661037 120.9888821542263 162.95655688643456 130.40886996686459 333.848188996315 280.54441669583321 130.89327946305275
leaf_count=617 655 707 807 915 533 669 560 519 6313 1196 1599 644 506 682 546 1394 1171 547
internal_value=0 -0.000172882 -0.00113527 0.00150865 0.000554033 -1.87257e-05 -0.000502734 0.000240016 0.00034555 0.00148537 6.50453e-05 -0.00124951 -0.00225147 -0.000409614 -0.000378386 3.4871e-05 0.000408583 -0.00112916
internal_weight=4929.91 4423.36 600.587 506.556 285.373 3822.77 1346.12 2476.65 2352.29 456.525 1895.77 571.623 254.413 317.209 408.725 774.502 614.393 261.302
internal_count=20580 18477 2517 2103 1188 15960 5626 10334 9815 1903 7912 2392 1066 1326 1710 3234 2565 1093
is_linear=0
shrinkage=0.00691662


Tree=20
num_leaves=17
num_cat=0
split_feature=58 72 62 60 43 24 59 2 10 62 29 35 56 15 10 68
split_gain=26.5117 13.2769 13.863 9.93449 11.5368 10.8678 17.1002 15.8378 9.97132 15.1581 16.3005 9.17301 8.8729 7.59675 7.69124 7.4742
threshold=0.29213851553098197 0.019422051986750351 0.37152509645948367 0.0049374009645911125 0.7108811186738011 0.0036441099983400842 0.54486411339019081 0.018793068265653749 0.038584867302432165 0.1052631578393395 -0.0097791541681143661 0.73030733330134112 -0.029369886685395741 0.0015537354074818702 0.0037470734215781514 0.21147185456891857
decision_type=2 2 2 2 2 2 2 2 2 2 2 2 2 2 2 2
left_child=1 2 13 8 5 6 -5 -7 9 10 -3 -2 -11 14 -1 -13
right_child=11 3 -4 4 -6 7 -8 -9 -10 12 -12 15 -14 -15 -16 -17
leaf_value=-0.0022547205965373386 0.0026883239160970743 0.0030827373152244124 -0.0026694123763619606 -0.0021622094769943897 -0.0021973648869957822 0.0018135466742706028 0.00032376653200726579 -0.00042818192750759934 -0.0016522345282281882 0.0010998105010951236 0.00036237751705699926 -0.00013662967748805313 -0.00014636500122581602 0.00081756920113790535 5.1321664430517318e-05 0.0019914882533889093
leaf_weight=134.84950123727322 196.07336588203907 182.41697809100151 191.74803124368191 280.24793665111065 168.58553050458431 227.71034407615662 237.87694628536701 431.56230695545673 124.31025740504265 329.23057807981968 274.24015666544437 182.4247245490551 1566.5632071346045 150.38867492973804 123.45294970273972 128.19690907001495
leaf_count=566 812 759 807 1174 706 950 994 1802 519 1374 1144 760 6538 628 516 531
internal_value=0 -0.000171744 -0.00112779 -1.86195e-05 -0.000499437 -0.000246323 -0.00100072 0.000330424 0.000238348 0.000343174 0.00147486 0.00149783 6.45564e-05 -0.000375739 -0.00111262 0.000708532
internal_weight=4929.88 4423.18 600.439 3822.74 1345.98 1177.4 518.125 659.273 2476.76 2352.45 456.657 506.695 1895.79 408.691 258.302 310.622
internal_count=20580 18477 2517 15960 5626 4920 2168 2752 10334 9815 1903 2103 7912 1710 1082 1291
is_linear=0
shrinkage=0.00691662


Tree=21
num_leaves=27
num_cat=0
split_feature=34 22 1 52 24 59 1 26 26 23 4 39 6 43 63 13 22 20 38 67 36 7 45 19 1 13
split_gain=26.2221 19.0017 23.1149 31.0097 16.101 18.045 15.7048 14.9546 14.2006 13.2169 11.7304 11.5686 10.0301 9.84519 11.2412 11.733 9.61613 9.11582 8.26119 7.71804 7.16713 6.40683 6.38622 6.39233 5.86441 5.66593
threshold=0.022901535924895172 0.001738085365951815 0.0081591046204414503 -7.547566734682742 0.010704896503920482 0.54954189564083133 -0.018348623853211062 -0.15339899913475105 -0.084377463964059193 -0.0026042922655221674 -0.0052961050551412195 0.89467239247525432 0.01985933314709221 0.27831436268936327 0.045761792533724241 0.47500000000000003 -0.0087223625738227627 0.28046822742474925 0.43561900347559529 0.30737342846160426 0.96047468404968639 0.0039490249006187703 0.68639039257952061 0.62520903010033457 0.01121514114243616 0.37500000000000006
decision_type=2 2 2 2 2 2 2 2 2 2 2 2 2 2 2 2 2 2 2 2 2 2 2 2 2 2
left_child=1 2 3 6 5 12 20 -2 -5 -7 -10 22 25 24 16 -16 -15 -6 -8 -4 -1 -19 -9 -24 -13 -3
right_child=7 4 19 8 17 9 18 11 10 -11 -12 13 -14 14 15 -17 -18 21 -20 -21 -22 -23 23 -25 -26 -27
leaf_value=-0.00075705155810361997 0.0026058444625800497 -0.0034609119551332135 -0.0029400842592284099 0.0034840080971021937 0.0015086446393170146 0.0015014944925822915 -0.00043813160649373243 0.00070990418787952522 -8.130166745851676e-05 -0.0015970376096678366 0.0020433101980330973 0.00098600916203264374 -0.00028892486218279415 -0.00065328707671024613 -0.0022594643228404667 0.00029314124993361186 0.0014333252108759387 -0.0015393918637220041 -0.0028525345919565314 -0.0006660972283843294 0.0013327809937564599 0.00045029732165915163 -0.00013756632969399039 -0.0021106974368053331 0.0031057220785800791 -0.001867814668444644
leaf_weight=124.11366453766823 166.93980738520622 225.56412330269814 118.57596732676029 152.47039633989334 142.28848293423653 135.03137481212616 145.42471370100975 143.59539975225925 229.99361126124859 127.64907863736153 248.03523117303848 177.0908227711916 125.33763639628887 125.03945879638195 121.76787506043911 273.8632545620203 509.51797790825367 164.73742258548737 150.94647100567818 223.81728763878345 194.67821903526783 133.61253501474857 200.98281519114971 143.91732151806355 120.05290424823761 304.78926080465317
leaf_count=518 692 947 496 635 594 564 608 598 961 534 1034 738 525 521 508 1142 2125 688 631 935 812 558 838 600 500 1278
internal_value=0 -0.000413742 9.38248e-05 0.000537784 -0.00101465 -0.00153636 -0.000553779 0.000614908 0.00161959 0 0.000999382 0.000425265 -0.00214964 0.000763257 0.0004292 -0.000466913 0.00100491 4.85882e-05 -0.00170695 -0.00148823 0.000485288 -0.000612762 -0.000470803 -0.000994066 0.00188245 -0.0025683
internal_weight=4929.83 2947.07 1588.06 1245.66 1359.01 918.371 615.163 1982.77 630.499 262.68 478.029 1815.83 655.691 1327.33 1030.19 395.631 634.557 440.638 296.371 342.393 318.792 298.35 488.496 344.9 297.144 530.353
internal_count=20580 12318 6630 5199 5688 3848 2569 8262 2630 1098 1995 7570 2750 5534 4296 1650 2646 1840 1239 1431 1330 1246 2036 1438 1238 2225
is_linear=0
shrinkage=0.00691662


Tree=22
num_leaves=17
num_cat=0
split_feature=58 72 27 62 60 43 24 2 33 10 62 41 71 35 51 10
split_gain=25.9234 12.9656 14.9154 12.3181 9.74879 11.392 10.6813 15.6199 12.2929 9.83567 14.9113 11.589 9.4624 9.02859 6.75263 5.66683
threshold=0.29213851553098197 0.019422051986750351 0.0046988413404664984 0.37152509645948367 0.0049374009645911125 0.7108811186738011 0.0036441099983400842 0.018793068265653749 0.019038484868797698 0.038584867302432165 0.1052631578393395 1.2455722932130124e-08 0.13606734411918445 0.73030733330134112 3.3576053025567849 0.0037470734215781514
decision_type=2 2 2 2 2 2 2 2 2 2 2 2 2 2 2 2
left_child=1 2 3 15 9 6 8 -8 -6 10 11 -3 -12 -2 -15 -1
right_child=13 4 -4 -5 5 -7 7 -9 -10 -11 12 -13 -14 14 -16 -17
leaf_value=-0.0018083953593058359 0.0026613300337581403 0.00039447355460814077 0.0006121056385962689 -0.0035337995298208259 -0.0021185257400393414 -0.002182657373200024 0.0018007714722551365 -0.00042518035550305347 0 -0.0016420136244504487 -0.000176452321608918 0.0026666695761101808 0.0010372875909308485 -6.1450621263257909e-05 0.0019771787029424048 2.9637090064006116e-05
leaf_weight=164.97968205809593 196.20430378615856 247.25118800997734 164.16487094759941 137.07237999141216 244.11980284750462 168.50332173705101 227.79057833552361 431.52225930988789 273.85060845315456 124.2701500505209 1512.2371415346861 209.56182038784027 383.59962384402752 190.01857757568359 120.69369566440582 133.96001882851124
leaf_count=693 812 1030 685 579 1023 706 950 1802 1145 519 6313 873 1599 790 501 560
internal_value=0 -0.000169907 -0.00111492 -0.00178997 -1.85803e-05 -0.000494957 -0.000243407 0.000328196 -0.00099153 0.00023592 0.000340035 0.00146224 6.36162e-05 0.00148072 0.000697423 -0.000949804
internal_weight=4929.8 4422.88 600.177 436.012 3822.71 1345.79 1177.28 659.313 517.97 2476.92 2352.65 456.813 1895.84 506.917 310.712 298.94
internal_count=20580 18477 2517 1832 15960 5626 4920 2752 2168 10334 9815 1903 7912 2103 1291 1253
is_linear=0
shrinkage=0.00691662


Tree=23
num_leaves=28
num_cat=0
split_feature=34 1 3 58 16 62 37 27 63 58 36 60 70 35 19 8 62 39 63 7 43 51 63 2 58 8 41
split_gain=25.6624 13.8609 19.7359 17.133 17.1631 19.0003 14.6805 13.2314 12.921 11.4981 10.9626 10.6754 10.1896 10.689 9.69998 8.53006 7.35184 6.77588 11.1671 11.4002 6.39192 8.63789 6.07649 6.0745 5.38086 5.2392 6.60903
threshold=0.022901535924895172 -0.0038736604937416037 0.0064332558657794756 0.1184489790876357 0.16026755852842814 0.39999999959999921 0.98641329175312498 -0.01024277141298424 0.027462086752932626 0.29213851553098197 1.2522692351012641 0.0046082949307164099 0.30961524906216442 1.002434916210089 0.33389074693422521 0.022618665317927004 0.41025641015121544 0.89467239247525432 0.043824701193909583 0.045454545454545421 0.59128586097415758 -5.2002071905644867 0.01757949850539239 -0.034206240356591804 0.17130613695766747 0.046764039244381113 9.4083998743363218e-09
decision_type=2 2 2 2 2 2 2 2 2 2 2 2 2 2 2 2 2 2 2 2 2 2 2 2 2 2 2
left_child=1 3 8 4 -1 7 23 -6 14 17 11 16 13 -11 22 -16 -4 25 20 -20 24 -22 -3 -5 -19 -2 -27
right_child=9 2 10 6 5 -7 -8 -9 -10 12 -12 -13 -14 -15 15 -17 -18 18 19 -21 21 -23 -24 -25 -26 26 -28
leaf_value=-0.0029148311203332031 -0.0014644937287280801 -0.00031597221939732954 0.0021316968964757892 0.00033485341813749742 -0.00067779157948534834 -0.0020391199757168305 -0.00082099235044075442 0.0014677647273325797 0 0.001893266453159864 -0.0019003752338152594 -0.00049629933187022896 0.0027184262240039468 -0.00085393307830468519 -0.0042310069638221504 -0.0015708783538899906 -6.3518173874387474e-06 0.0022334877528537235 -0.0018943488778330486 0.00065833972578912766 0.0016357309340979522 -0.0008434694094189238 -0.002408824339432015 0.0023119075596368076 0.00053824285715989837 -0.00079041038563642651 0.0011825381640780579
leaf_weight=122.0251222550869 145.40290175378323 171.46403102576733 176.1866130977869 120.42978872358799 236.03517214953899 182.99179096519947 139.17772494256496 314.07204900681973 157.66585259139538 144.37711054086685 137.31007918715477 391.82452355325222 207.21490330994129 120.74298070371151 157.19703157246113 118.60705304145813 118.67836999893188 276.95663361251354 142.70638152956963 193.30725668370724 119.6415059119463 147.84060809016228 125.06404826045036 277.89822658896446 161.44199122488499 174.05721053481102 149.43544192612171
leaf_count=510 607 719 735 502 987 767 581 1311 660 599 574 1637 856 504 659 497 496 1155 596 807 499 617 524 1159 673 726 623
internal_value=0 -0.000409419 -0.00085904 8.46431e-05 -0.00051502 -9.91547e-05 0.00105841 0.00052769 -0.0016879 0.00060817 -0.00011104 0.000232051 0.00155523 0.000602016 -0.00217078 -0.00313097 0.00123584 0.000304511 0.000619121 -0.000394732 0.00111702 0.000225931 -0.00123761 0.00174247 0.00163517 -0.000371383 8.79203e-05
internal_weight=4929.75 2946.63 1554 1392.63 855.124 733.099 537.506 550.107 729.998 1983.12 824 686.69 472.335 265.12 572.332 275.804 294.865 1510.79 1041.89 336.014 705.881 267.482 296.528 398.328 438.399 468.896 323.493
internal_count=20580 12318 6501 5817 3575 3065 2242 2298 3059 8262 3442 2868 1959 1103 2399 1156 1231 6303 4347 1403 2944 1116 1243 1661 1828 1956 1349
is_linear=0
shrinkage=0.00691662


Tree=24
num_leaves=18
num_cat=0
split_feature=58 72 27 70 10 60 43 24 59 2 17 73 21 45 16 3 72
split_gain=25.2168 12.7271 14.6628 10.6826 10.4558 9.5391 11.1997 10.5265 16.7091 15.3935 9.92067 9.94682 14.8424 12.928 7.87566 7.3219 5.87526
threshold=0.29213851553098197 0.019422051986750351 0.0046988413404664984 0.30735917700373039 0.0037470734215781514 0.0049374009645911125 0.7108811186738011 0.0036441099983400842 0.54486411339019081 0.018793068265653749 0.80067340067340076 11.824758558266229 0.11055555555555556 1.0538617922789826 0.63043624161073841 0.033837767006348336 0.057400280284175813
decision_type=2 2 2 2 2 2 2 2 2 2 2 2 2 2 2 2 2
left_child=1 2 4 16 14 10 7 8 -7 -9 11 12 -3 -13 -1 -12 -2
right_child=3 5 -4 -5 -6 6 -8 9 -10 -11 15 13 -14 -15 -16 -17 -18
leaf_value=-0.0037251970765856124 0.0016026722716828614 -0.0017814069255657756 0.00060751435495931191 0.0026109597415267419 -0.00034298986951524619 -0.0021316996752275331 -0.0021630883191636613 0.0017892458633699828 0.00032612986717727848 -0.00042020264066888041 0.0024725336315812385 -0.0019077294280972451 0.00049986117729542692 0.00047697409231035485 -0.0011619930693580638 0.00038142366208627912 -0.00034132628284049357
leaf_weight=148.54737314581871 132.81393401324749 147.70059978961945 164.18593057990074 221.59486043453217 167.81783352792263 279.96167467534542 168.39354106783867 227.86305034160614 237.85876339673996 431.45671114325523 150.93578094244003 250.1211593747139 1544.4736214876175 181.49252809584141 119.40143610537052 202.32507199048996 152.77390651404858
leaf_count=627 552 616 685 915 703 1174 706 950 994 1802 628 1045 6445 757 502 843 636
internal_value=0 -0.000167691 -0.00110417 0.00145991 -0.00177389 -1.77566e-05 -0.000489081 -0.000239624 -0.00098253 0.000327703 0.000233937 4.99824e-05 0.000293891 -0.000880461 -0.00262748 0.00130766 0.000526011
internal_weight=4929.72 4422.54 599.953 507.183 435.767 3822.58 1345.53 1177.14 517.82 659.32 2477.05 2123.79 1692.17 431.614 267.949 353.261 285.588
internal_count=20580 18477 2517 2103 1832 15960 5626 4920 2168 2752 10334 8863 7061 1802 1129 1471 1188
is_linear=0
shrinkage=0.00691662


Tree=25
num_leaves=23
num_cat=0
split_feature=34 21 21 19 15 22 74 2 21 55 59 45 63 17 41 28 1 63 37 2 43 14
split_gain=25.146 19.5038 29.7745 17.3596 18.5521 16.7035 12.5615 11.9797 18.2185 16.7241 11.9321 12.8766 11.7264 10.8069 12.7848 10.2124 9.47517 10.6679 9.20062 8.68927 7.53185 3.90162
threshold=0.022901535924895172 0.56114478114478128 0.61916666666666675 0.34949664429530208 0.0026027945225598936 -0.0011779671516874996 29.157382070808033 -0.027502455795677724 0.53511185682326634 0.017344157410709517 0.29863817501983742 0.86884225803058046 0.018037643915030085 0.74037037037037046 5.4618233688902388e-09 -0.060342774290309535 0.035373566705090072 0.055114416217660993 0.10705255354183925 0.0016038997787723999 0.42682561235967942 -0.0077498523756373188
decision_type=2 2 2 2 2 2 2 2 2 2 2 2 2 2 2 2 2 2 2 2 2 2
left_child=1 3 -3 4 10 -6 15 21 9 -9 12 -12 -1 14 -4 -2 17 18 -17 -16 -18 -5
right_child=6 2 13 7 5 -7 -8 8 -10 -11 11 -13 -14 -15 19 16 20 -19 -20 -21 -22 -23
leaf_value=0.00024158752225846505 0.0022202942502868332 -0.0036335604148810588 0.00070508486808482584 -3.1246488538974254e-05 0.0006669592085035449 0.0039895926464211667 0.002305066833326925 -0.0020968151545679653 0.0013733599889107233 -6.0303373944547983e-05 -0.00031810432908266508 0.0025721798548468473 -0.0023881982429173679 0.0010503883921975496 -0.0030176886030898404 -0.00047938240840771616 0.0027417755584822211 -0.0014781436219896227 0.00076188954715105859 -0.00062404240008972741 0.00034569988490854595 0.0016148948865401483
leaf_weight=160.43732723593712 139.36868347227573 201.62530767917633 127.99482925236225 129.94363848865032 195.64735221862793 124.78458875417709 189.67550188302994 522.53751438856125 134.42994762957096 323.45517075061798 157.26409476995468 129.55865025520325 150.90491776168346 148.1961363106966 155.36936229467392 462.21646751463413 119.63348983228207 194.38283936679363 720.75092102587223 162.57188366353512 157.41521379351616 121.50245171785355
leaf_count=672 577 846 536 542 816 521 787 2185 562 1350 657 541 631 619 652 1927 498 811 3005 681 657 507
internal_value=0 -0.000405413 -0.00133083 -5.77139e-05 0.000656132 0.00199867 0.000601866 -0.000598869 -0.00094905 -0.00133146 -4.59672e-05 0.000951819 -0.000999988 -0.000528848 -0.00107851 0.00041516 0.000255946 1.30474e-05 0.000267734 -0.00183057 0.00142236 0.000722717
internal_weight=4929.67 2946.22 795.758 2150.47 918.597 320.432 1983.44 1231.87 980.423 845.993 598.165 286.823 311.342 594.132 445.936 1793.77 1654.4 1377.35 1182.97 317.941 277.049 251.446
internal_count=20580 12318 3334 8984 3838 1337 8262 5146 4097 3535 2501 1198 1303 2488 1869 7475 6898 5743 4932 1333 1155 1049
is_linear=0
shrinkage=0.00691662


Tree=26
num_leaves=24
num_cat=0
split_feature=34 21 21 19 74 1 58 55 55 59 17 63 28 45 1 63 59 37 59 71 43 72 74
split_gain=24.8017 19.2444 29.3987 17.1232 12.3784 11.8891 12.6468 12.473 11.735 11.3669 10.6614 10.2735 10.0654 9.71341 9.34636 10.5229 9.0926 9.0737 8.18583 8.87104 7.41713 5.9505 5.70521
threshold=0.022901535924895172 0.56114478114478128 0.61916666666666675 0.34949664429530208 29.157382070808033 0.0075104621616249876 0.12040065730497718 0.015904404536019896 0.017344157410709517 0.30270228521677267 0.74037037037037046 0.016497064000125714 -0.060342774290309535 0.76687991746731698 0.035373566705090072 0.055114416217660993 0.65945027476899754 0.10705255354183925 0.56933322011632093 0.06320541760615328 0.42682561235967942 0.023331825363266612 15.293308557312544
decision_type=2 2 2 2 2 2 2 2 2 2 2 2 2 2 2 2 2 2 2 2 2 2 2
left_child=1 3 -3 9 12 6 8 -7 -5 11 18 -1 -2 -11 15 17 -8 -14 19 -4 -16 -13 -15
right_child=4 2 10 5 -6 7 16 -9 -10 13 -12 21 14 22 20 -17 -18 -19 -20 -21 -22 -23 -24
leaf_value=0.0011396959847592403 0.0022040939673481849 -0.0036113313589627798 -0.0025859276616022448 -0.0014374449266366495 0.0022881679999222676 -0.0029688490518740033 0.0022071173739439702 -0.00036561570618881843 0.00096930709301224806 0 0.0010429215263005947 -0.0019206306183079437 -0.00047611616341218597 0.0033236988972433516 0.0027214188944981168 -0.0014683864509327032 -1.4384373092083937e-05 0.00075650704781735458 0.00033521422181144987 -0.00011228764878051049 0.00034329185437542166 1.6059185003953081e-06 0.0012341509292996698
leaf_weight=193.79635205864906 139.42531530559063 201.46672415733337 195.76231352984905 387.53529562056065 189.75795631110668 176.50923645496368 142.88779802620411 197.22699415683746 123.25102503597736 138.15838386118412 148.2281069457531 142.04355403780937 462.17186670005322 126.5477287620306 119.69806544482708 194.32444868981838 204.30318793654442 720.86137782037258 128.0248146802187 122.04490306973457 157.42630077898502 143.66521637141705 174.50430192053318
leaf_count=811 577 846 823 1621 787 739 596 824 514 577 619 594 1927 528 498 811 852 3005 535 511 657 600 728
internal_value=0 -0.000402623 -0.00132203 -5.72397e-05 0.000597721 -0.000594801 -0.000132211 -0.00162627 -0.000835138 0.000651606 -0.00052514 -6.33468e-05 0.000412305 0.00145603 0.000254166 1.28449e-05 0.00087048 0.000265805 -0.00107133 -0.00167165 0.00141244 -0.000917789 0.00215232
internal_weight=4929.62 2945.96 795.527 2150.43 1983.67 1231.71 857.977 373.736 510.786 918.716 594.06 479.505 1793.91 439.21 1654.48 1377.36 347.191 1183.03 445.832 317.807 277.124 285.709 301.052
internal_count=20580 12318 3334 8984 8262 5146 3583 1563 2135 3838 2488 2005 7475 1833 6898 5743 1448 4932 1869 1334 1155 1194 1256
is_linear=0
shrinkage=0.00691662


Tree=27
num_leaves=24
num_cat=0
split_feature=34 21 21 19 15 22 2 21 55 59 45 63 58 6 21 21 70 30 73 39 18 18 15
split_gain=24.4633 18.9874 29.0277 16.8922 18.2757 16.4293 11.7636 17.9914 16.3198 11.6479 12.6138 11.4831 10.9093 10.5034 13.8588 11.045 9.80344 7.67871 11.0259 7.08802 8.82933 5.14981 3.61845
threshold=0.022901535924895172 0.56114478114478128 0.61916666666666675 0.34949664429530208 0.0026027945225598936 -0.0011779671516874996 -0.027502455795677724 0.53511185682326634 0.017344157410709517 0.29863817501983742 0.86884225803058046 0.018037643915030085 0.33658837263088792 -0.08194746197906376 0.66109253065774809 0.80500000000000005 0.23953078256739077 2.5000000000000004 17.361111094232246 0.89467239247525432 0.79564431774819877 0.35953020134228192 -0.025811171562777502
decision_type=2 2 2 2 2 2 2 2 2 2 2 2 2 2 2 2 2 2 2 2 2 2 2
left_child=1 3 -3 4 9 -6 22 8 -8 11 -11 -1 17 -4 -15 -16 -14 18 19 21 -21 -2 -5
right_child=12 2 13 6 5 -7 7 -9 -10 10 -12 -13 16 14 15 -17 -18 -19 -20 20 -22 -23 -24
leaf_value=0.00023481431383697032 0.00016929986136584522 -0.0035892434270240622 -0.0022189206899397734 0.0015323287486197941 0.00065791807817439259 0.0039525802640126857 -0.0020748117878509669 0.0013695590766908499 -6.2312838655701521e-05 -0.00032123644761910549 0.0025384237049189359 -0.002367142708246772 0.00039333012731439194 0.0020034066775072661 -0.0017048774472528901 0.00083074773983988332 0.0028372811964861746 0.0015594192155470043 -0.0014484818985341043 0.0012118665583173416 -0.00059452460144233498 -0.0014001822948292888 -4.7034694272014252e-05
leaf_weight=160.47058598697186 364.85929605364799 201.30798082053661 134.40793552994728 128.52218769490719 195.69757750630379 124.90660727024078 522.16437813639641 134.4442705065012 323.47378326952457 157.27891400456429 129.67893965542316 150.80099238455296 159.17265126109123 119.0180869102478 214.31676414608955 126.24333101511002 181.14836463332176 219.70698036253452 175.9312642365694 593.46973372995853 156.31837803125381 133.27764466404915 122.95382224023342
leaf_count=672 1520 846 563 536 816 521 2185 562 1350 657 541 631 662 498 898 529 748 916 734 2474 652 556 513
internal_value=0 -0.000399875 -0.0013133 -5.68018e-05 0.000647124 0.00197924 -0.000590829 -0.000938022 -0.00131827 -4.96897e-05 0.000935428 -0.000992673 0.000593606 -0.000521456 0 -0.000733305 0.00172817 0.000351652 0.000157218 0.000392738 0.000820677 -0.000229817 0.000718483
internal_weight=4929.57 2945.69 795.294 2150.39 918.834 320.604 1231.56 980.082 845.638 598.229 286.958 311.272 1983.88 593.986 459.578 340.56 340.321 1643.56 1423.86 1247.93 749.788 498.137 251.476
internal_count=20580 12318 3334 8984 3838 1337 5146 4097 3535 2501 1198 1303 8262 2488 1925 1427 1410 6852 5936 5202 3126 2076 1049
is_linear=0
shrinkage=0.00691662


Tree=28
num_leaves=25
num_cat=0
split_feature=34 21 21 19 15 22 26 50 40 2 21 9 39 8 43 22 60 40 21 41 21 23 41 14
split_gain=24.1262 18.7347 28.6615 16.6622 18.0194 16.1754 14.2106 13.561 13.3882 11.6015 17.7514 16.2637 11.0972 9.64529 9.51504 9.23596 9.26972 9.2543 7.98071 7.72773 6.99709 6.42336 5.80035 3.86284
threshold=0.022901535924895172 0.56114478114478128 0.61916666666666675 0.34949664429530208 0.0026027945225598936 -0.0011779671516874996 -0.15339899913475105 47.188069587346021 1.0709355551290776 -0.027502455795677724 0.53511185682326634 0.0089575059529090079 0.89467239247525432 0.057036080381028038 0.27831436268936327 0.001540324149348022 0.0089039647842293155 0.85339151888589637 0.4283333333333334 1.1625573534257391e-08 0.22444444444444447 -0.0065889508362898521 1.6795279263188471e-08 -0.0077498523756373188
decision_type=2 2 2 2 2 2 2 2 2 2 2 2 2 2 2 2 2 2 2 2 2 2 2 2
left_child=1 3 -3 4 13 -6 -2 19 -9 23 11 -11 20 22 18 17 -17 -16 -14 -4 -8 -22 -1 -5
right_child=6 2 7 9 5 -7 12 8 -10 10 -12 -13 14 -15 15 16 -18 -19 -20 -21 21 -23 -24 -25
leaf_value=0.00066378191487275579 0.0025283516067332889 -0.0035672953629263065 -0.00023619600989359727 -3.6950724880460477e-05 0.00065329193983792858 0.0039222233985541808 0.00090176546213272554 -0.00088296794640710862 0.0020276257170491656 -0.0024697717134731356 0.0013597342657048189 -0.00048357955456784064 0.0032206820986497215 0.0016872874890397559 0.0006228539967701659 0.0020817503197828329 0.00011387682597069628 -0.0011680555829540417 0.00080173749976259953 -0.0025772072851280052 -0.0021071084512897767 -0.00017030609286976746 -0.00099315297941759907 0.0016009720635059869
leaf_weight=134.54692809283733 167.25123941898346 201.14909583330154 133.05629153549671 129.964963555336 195.72350324690342 125.0060792863369 123.63673719763756 151.77125784754753 144.60655245184898 345.74053777754307 134.48239998519421 499.66583405435085 122.13306502997875 119.15516793727875 293.48371043801308 237.88306941092014 244.45036725699902 255.0038543343544 175.38819137215614 164.48300921916962 144.61634877324104 220.25742094218731 344.51640668511391 121.54958964884281
leaf_count=563 692 846 558 542 816 521 515 635 604 1446 562 2089 508 497 1222 991 1020 1063 730 691 603 918 1441 507
internal_value=0 -0.000397122 -0.00130461 -5.63342e-05 0.000642664 0.00196506 0.000589477 -0.000517791 0.000501609 -0.000586816 -0.000931722 -0.00130961 0.00040441 -4.92233e-05 0.000735379 0.000406883 0.00110797 -0.000190324 0.00183467 -0.00156876 -0.00047322 -0.000969372 -0.000504993 0.000713125
internal_weight=4929.52 2945.42 795.066 2150.35 918.948 320.73 1984.1 593.917 296.378 1231.4 979.889 845.406 1816.85 598.219 1328.34 1030.82 482.333 548.488 297.521 297.539 488.511 364.874 479.063 251.515
internal_count=20580 12318 3334 8984 3838 1337 8262 2488 1239 5146 4097 3535 7570 2501 5534 4296 2011 2285 1238 1249 2036 1521 2004 1049
is_linear=0
shrinkage=0.00691662


Tree=29
num_leaves=15
num_cat=0
split_feature=58 72 27 62 70 35 66 12 35 58 34 34 20 10
split_gain=23.8187 12.2111 14.3014 12.0401 10.2788 11.132 9.33004 10.5384 10.2982 13.1294 11.5019 8.10309 6.40763 5.43483
threshold=0.29213851553098197 0.019422051986750351 0.0046988413404664984 0.37152509645948367 0.30735917700373039 1.002434916210089 0.031064673473479406 0.45000000000000007 0.6682972598943282 0.15272310833070016 0.028675750280560547 0.012847195000815248 0.27563103066458777 0.0037470734215781514
decision_type=2 2 2 2 2 2 2 2 2 2 2 2 2 2
left_child=1 2 3 13 5 -2 -3 11 9 -9 -10 -8 -13 -1
right_child=4 6 -4 -5 -6 -7 7 8 10 -11 -12 12 -14 -15
leaf_value=-0.0017544916919956196 0.0017514561522041041 0.0015633130009038438 0.0006092857086702092 -0.0034688507300812558 0.0025460948841173276 -0.00096068681032282228 -0.0022176376613053388 0.00043620672707640355 0.00020850319448592367 -0.0019503865997916071 0.0017065192424728134 0.00056404721637603854 -0.00053829113390968758 4.633078956489741e-05
leaf_weight=164.67251814901829 158.026945784688 169.74081553518772 164.17419607937336 136.72613872587681 221.93411040306091 127.75157289206982 120.09720683097839 231.50091889500618 1079.283210515976 200.89398311078548 326.00077168643475 298.44576515257359 1396.3298420608044 133.89030440151691
leaf_count=693 655 706 685 579 915 533 503 966 4505 839 1359 1248 5834 560
internal_value=0 -0.000162923 -0.00108062 -0.00174283 0.00141818 0.000501598 -1.60446e-05 -9.26025e-05 0.000272857 -0.000648509 0.000564189 -0.0004686 -0.000337673 -0.00091188
internal_weight=4929.47 4421.76 599.463 435.289 507.713 285.779 3822.29 3652.55 1837.68 432.395 1405.28 1814.87 1694.78 298.563
internal_count=20580 18477 2517 1832 2103 1188 15960 15254 7669 1805 5864 7585 7082 1253
is_linear=0
shrinkage=0.00691662


Tree=30
num_leaves=24
num_cat=0
split_feature=34 21 21 1 36 58 63 55 50 40 41 38 74 19 19 28 1 63 37 21 59 43 2
split_gain=23.5507 18.4575 28.2741 16.7478 18.6812 16.0573 18.8655 14.0069 13.3384 13.184 12.3845 12.2437 12.0114 11.1981 9.9348 9.70564 9.21003 10.4052 8.82747 8.35439 8.25305 7.2444 6.02928
threshold=0.022901535924895172 0.56114478114478128 0.61916666666666675 -0.0038736604937416037 1.1368671031027495 0.11606784598210389 0.013625406291464625 0.015904404536019896 47.188069587346021 1.0709355551290776 1.5086101802163917e-08 1.2764276734984052 29.157382070808033 0.44463024897807507 0.18487447178722349 -0.060342774290309535 0.035373566705090072 0.055114416217660993 0.10705255354183925 0.39833333333333337 0.49565406071736301 0.42682561235967942 0.016702219432580993
decision_type=2 2 2 2 2 2 2 2 2 2 2 2 2 2 2 2 2 2 2 2 2 2 2
left_child=1 3 -3 5 7 6 -1 10 20 -10 -5 13 15 -7 -8 -2 17 18 -17 -6 -4 -18 -9
right_child=12 2 8 4 19 11 14 22 9 -11 -12 -13 -14 -15 -16 16 21 -19 -20 -21 -22 -23 -24
leaf_value=0.002134528333141675 0.0021580528010537348 -0.0035418996621831506 -0.0024944659604971536 -0.0020467119810223234 -0.0034401133242087816 0.003975380584263194 0.00092642789749206251 0.0021529270928317568 -0.00087517332470399896 0.0020127503421887359 0.00020336655573518627 6.6011783101947941e-05 0.0022466844343363036 0.0010294275071088123 -0.0012388494199279277 -0.00047557097652013643 0.0026863789260366754 -0.0014685246270667591 0.00074018413921105475 -0.00093955599632812809 -4.5764414391358017e-05 0.00033591792367030238 0
leaf_weight=137.1971525400877 139.58065545558929 200.96120339632034 178.63047958910465 217.28810277581215 140.02525013685226 127.5242505222559 126.85707539319992 136.73041787743568 151.73348493874073 144.66652774810791 236.12055648863316 180.60621862113476 189.95184427499771 145.14266340434551 425.77185389399529 462.15862874686718 119.80691039562225 194.32223895192146 721.19072133302689 146.56237563490868 118.76557971537113 157.45913301408291 130.35675576329231
leaf_count=574 577 846 752 911 586 531 530 570 635 604 988 753 787 605 1779 1927 498 811 3005 613 497 657 544
internal_value=0 -0.000392337 -0.00129328 -5.4073e-05 -0.000708787 0.000513314 -0.000136956 -9.84341e-05 -0.000511799 0.000498817 -0.00085208 0.00152594 0.0005824 0.00245146 -0.000721836 0.000399644 0.000244208 4.64565e-06 0.000256212 -0.00220277 -0.00155461 0.00139346 0.00113968
internal_weight=4929.41 2944.94 794.757 2150.18 1007.08 1143.1 689.826 720.496 593.796 296.4 453.409 453.273 1984.47 272.667 552.629 1794.52 1654.94 1377.67 1183.35 286.588 297.396 277.266 267.087
internal_count=20580 12318 3334 8984 4212 4772 2883 3013 2488 1239 1899 1889 8262 1136 2309 7475 6898 5743 4932 1199 1249 1155 1114
is_linear=0
shrinkage=0.00691662


end of trees

feature_importances:
market_up_ratio=33
bb_width=33
wick_lower=25
body=23
volume_rank=22
atr_pct=22
market_return=19
ma_slope_5=19
range_pct=19
volatility_60=18
vol_regime_5_20=18
volatility_skew=18
dist_high_60=17
return_2d=16
momentum_reversal=16
return_3d=15
bb_width_pct=15
relative_return_5d=12
vol_regime_20_60=12
price_volume_corr=12
return_5d_rank=11
volatility_kurt=10
vol_ma_ratio=10
macd_hist=9
macd_hist_slope=9
dist_high_20=9
di_diff=9
return_20d_rank=8
ma_ratio_10=8
ma_ratio_60=8
amihud_ma=8
price_pos_20=8
adx=8
return_5d=7
return_30d=6
relative_return_1d=6
volatility_20=6
turnover_proxy=6
dist_low_60=6
momentum_strength_10=5
return_1d_rank=5
volatility_20_rank=5
ma_slope_10=5
vol_asymmetry=5
return_10d=4
ma_ratio_5=4
ma_slope_20=4
rsi_28=4
price_pos_60=4
momentum_short=3
momentum_strength_20=3
rsi_6=3
rsi_diff=3
rsi_slope=3
return_60d=2
momentum_long=2
volatility_5=2
macd_signal=2
ma_ratio_20=1
ma_alignment=1
volatility_10=1
vol_volatility=1
vol_std=1
wick_upper=1
dist_low_20=1

parameters:
[boosting: gbdt]
[objective: binary]
[metric: auc]
[tree_learner: serial]
[device_type: cpu]
[data_sample_strategy: bagging]
[data: ]
[valid: ]
[num_iterations: 2000]
[learning_rate: 0.00691662]
[num_leaves: 28]
[num_threads: 0]
[seed: 42]
[deterministic: 0]
[force_col_wise: 0]
[force_row_wise: 0]
[histogram_pool_size: -1]
[max_depth: 6]
[min_data_in_leaf: 495]
[min_sum_hessian_in_leaf: 0.001]
[bagging_fraction: 0.522365]
[pos_bagging_fraction: 1]
[neg_bagging_fraction: 1]
[bagging_freq: 0]
[bagging_seed: 400]
[bagging_by_query: 0]
[feature_fraction: 0.740659]
[feature_fraction_bynode: 1]
[feature_fraction_seed: 30056]
[extra_trees: 0]
[extra_seed: 12879]
[early_stopping_round: 0]
[early_stopping_min_delta: 0]
[first_metric_only: 0]
[max_delta_step: 0]
[lambda_l1: 1.56727]
[lambda_l2: 0.47756]
[linear_lambda: 0]
[min_gain_to_split: 0]
[drop_rate: 0.1]
[max_drop: 50]
[skip_drop: 0.5]
[xgboost_dart_mode: 0]
[uniform_drop: 0]
[drop_seed: 17869]
[top_rate: 0.2]
[other_rate: 0.1]
[min_data_per_group: 100]
[max_cat_threshold: 32]
[cat_l2: 10]
[cat_smooth: 10]
[max_cat_to_onehot: 4]
[top_k: 20]
[monotone_constraints: ]
[monotone_constraints_method: basic]
[monotone_penalty: 0]
[feature_contri: ]
[forcedsplits_filename: ]
[refit_decay_rate: 0.9]
[cegb_tradeoff: 1]
[cegb_penalty_split: 0]
[cegb_penalty_feature_lazy: ]
[cegb_penalty_feature_coupled: ]
[path_smooth: 0]
[interaction_constraints: ]
[verbosity: -1]
[saved_feature_importance_type: 0]
[use_quantized_grad: 0]
[num_grad_quant_bins: 4]
[quant_train_renew_leaf: 0]
[stochastic_rounding: 1]
[linear_tree: 0]
[max_bin: 255]
[max_bin_by_feature: ]
[min_data_in_bin: 3]
[bin_construct_sample_cnt: 200000]
[data_random_seed: 175]
[is_enable_sparse: 1]
[enable_bundle: 1]
[use_missing: 1]
[zero_as_missing: 0]
[feature_pre_filter: 1]
[pre_partition: 0]
[two_round: 0]
[header: 0]
[label_column: ]
[weight_column: ]
[group_column: ]
[ignore_column: ]
[categorical_feature: ]
[forcedbins_filename: ]
[precise_float_parser: 0]
[parser_config_file: ]
[objective_seed: 16083]
[num_class: 1]
[is_unbalance: 0]
[scale_pos_weight: 1]
[sigmoid: 1]
[boost_from_average: 1]
[reg_sqrt: 0]
[alpha: 0.9]
[fair_c: 1]
[poisson_max_delta_step: 0.7]
[tweedie_variance_power: 1.5]
[lambdarank_truncation_level: 30]
[lambdarank_norm: 1]
[label_gain: ]
[lambdarank_position_bias_regularization: 0]
[eval_at: ]
[multi_error_top_k: 1]
[auc_mu_weights: ]
[num_machines: 1]
[local_listen_port: 12400]
[time_out: 120]
[machine_list_filename: ]
[machines: ]
[gpu_platform_id: -1]
[gpu_device_id: -1]
[gpu_use_dp: 0]
[num_gpu: 1]

end of parameters

pandas_categorical:[]
